function [y1] = myNNFunc_2000_R095(x1)
%MYNEURALNETWORKFUNCTION neural network simulation function.
%
% Generated by Neural Network Toolbox function genFunction, 09-Mar-2018 10:51:31.
%
% [y1] = myNeuralNetworkFunction(x1) takes these arguments:
%   x = 116xQ matrix, input #1
% and returns:
%   y = 6xQ matrix, output #1
% where Q is the number of samples.

%#ok<*RPMT0>

% ===== NEURAL NETWORK CONSTANTS =====

% Input 1
x1_step1.xoffset = [-221.92333984375;9.99999997475243e-07;1;9.99999997475243e-07;-993.010498046875;-443.8466796875;3.00000010611257e-06;-2685.47265625;-10811.654296875;0.0127140004187822;-2317695;1.07668495178223;-2617173.75;-24176355328;-1578865000448;-8904674304;-94182113280;-154897203200;-1.63291299343109;9.99999997475243e-07;1;0;-5.87742614746094;-4.58866310119629;0;-20704.37890625;-17229.392578125;4.09999993280508e-05;-4062596.75;-1983.66735839844;-4571901;-32125665280;-1143721820160;-1901877504;-38046060544;-182807527424;-0.832614004611969;9.99999997475243e-07;1;0;-11.5691909790039;-39382.57421875;9.99999997475243e-07;-326.661376953125;-63030804;-0.752099990844727;-8179929088;-30.6818294525146;-9313044480;-85654885105664;-4.14777205587968e+15;-56616460222464;-214772742094848;-574677495840768;0.00589800020679832;0.00654800003394485;9.99999997475243e-07;9.99999997475243e-07;-0.0193479992449284;9.99999997475243e-07;1;0;-117.367393493652;-0.517156004905701;0;-212.483459472656;-0.860651016235352;9.99999997475243e-07;-172.37907409668;4.99999987368938e-06;-189.473556518555;-3166.162109375;-171043.953125;-2799.25708007812;-10662.42578125;-12371.576171875;-0.0511309988796711;9.99999997475243e-07;1;0;-7.23598623275757;-0.190487995743752;0;-685.744384765625;-1.40992295742035;2.40000008489005e-05;-194.611129760742;-0.219209000468254;-200.102081298828;-2546.04663085938;-198629.5;-6811.23974609375;-4378.9638671875;-39254.44140625;-1.07135200500488;9.99999997475243e-07;1;9.99999997475243e-07;-81.0223922729492;-2.14270401000977;9.99999997475243e-07;-109.089012145996;-28.8482055664062;-25.3461723327637;-22.5070686340332;-25.3461723327637;-24.7638359069824;-270.700592041016;-2603.27612304688;-3327.5859375;-272.727172851562;-2405.57080078125;-2.22929310798645;-2.18387699127197;-6.18847703933716;-6.1871452331543];
x1_step1.gain = [0.00614380383026364;0.738225019934069;0.000801603206412826;18.6323832644708;0.00201407741007594;0.00307190191513182;32.0795569392822;0.000744770943122641;8.66928941399749e-07;2.04823458469894e-05;3.45711743992156e-07;7.50574469062969e-07;6.59710806490792e-07;4.84138772271022e-12;1.26673314960568e-12;5.24522971987268e-12;2.12354552971053e-11;1.20575638050779e-11;0.0023896814918699;0.294789238417191;0.000800640512409928;28.9578072299086;0.3402850073861;0.00119389722108847;5.30753153926082;9.65979230314541e-05;6.99999133819431e-07;4.61511425444055e-06;4.86854552434477e-07;6.04970253990164e-07;4.37402152267217e-07;6.39997628654162e-12;1.74867636708975e-12;7.18065502766969e-12;4.13573866447102e-11;1.0930968250068e-11;3.28318037005663e-05;0.293808208181024;0.000800640512409928;5.66044673329086;0.17287293498998;1.28769840835698e-05;219.226140755434;0.00612298304205443;2.51101713160773e-10;2.6886649043712e-09;2.44500896812865e-10;2.08977205366987e-10;2.14752544594741e-10;1.76897018968132e-15;4.82186574637072e-16;1.9137446429886e-15;8.42139960972513e-15;3.48021283834034e-15;0.022629767956353;0.02271538414692;0.00087979698551435;0.000880772422319586;1.99781245359528;1.1009711762053;0.000801282051282051;1502.62959417409;0.017040507933817;0.824790898264235;326.904216030911;0.00941304277680542;0.0113346670554513;0.428844133273445;0.0114885583693598;0.0103217216893268;0.0105450350847392;8.1483794432938e-05;1.16929206100507e-05;8.29846894159725e-05;0.000187555218432578;0.000161338454522854;1.55720066746008;0.2580262255399;0.000889284126278346;237.614350135018;0.276396324656607;0.753354089145502;151.354628815716;0.00291653864680724;0.0105643684421549;0.182617902160874;0.0101991332421643;0.00966172886042517;0.00998968408773687;7.36054417135606e-05;1.00689897773564e-05;6.49874198729785e-05;0.000455982850922167;5.09154976242604e-05;1.02555423044079;0.248916811087067;0.00040048057669203;486.381336408758;0.0246845471397327;0.460362975494199;3838.77147043283;0.0183361110309517;0.0295145004068118;0.0313815926196562;0.0121451507296813;0.0313815926196562;0.0235096215653497;0.00123894361076784;0.00051178487442669;0.000106529770363324;0.000712637373750335;0.000344352573655069;0.478964816680197;0.484423489186699;0.209531043166161;0.209570868542835];
x1_step1.ymin = -1;

% Layer 1
b1 = [-2.4597487303991516505;-1.1545427874068778795;0.53114285778809811056;-0.38513241481697596535;-0.30171582390067147594;-0.030998313007870904878;-0.63684363032493307433;0.99421027436465647664;1.1151125557308070313;1.5564215768320432964];
IW1_1 = [-0.29491056525087944173 -0.23788849656019278589 0.13999485417698662171 -0.70417366393410429914 -0.029042716657603870334 -0.18160304020398160274 -0.055216345789371512609 0.12086229161904932239 0.19838147869262828804 -0.32776165673952012414 -0.060983601807180619347 0.28159280227178373757 0.011399019049538453019 0.086074649237327924278 0.070716522955127883443 0.1354941235668168098 0.16771234242357491162 -0.294528563056192072 0.1355630617821841355 -0.036304801690999498331 -0.014232306482565924843 -0.28195311076684326235 -0.46548367988642702642 0.1707977741448725717 -0.22811780620936861208 -0.031404167533714916205 -0.12535761499326592006 -0.042619260582689208472 0.35294467230326054263 -0.056511348112926677867 0.40464480898453442093 0.093413546012436537991 -0.042058406711443778458 -0.18183775542381322432 0.42027841588669778705 0.13218034027620065296 -0.57317965256903413707 1.8790593749640522869 -3.8273108736814585029 0.53092196811003011803 -0.35898725646090534624 0.11161278255235371204 0.4821422276026904874 2.2397070224186794718 0.013558284221825506188 0.27836608427451769998 -0.061708435408626201302 0.031862858170094925103 0.099164489103598263409 0.071295662774102402937 0.0067814717169778632178 0.040637688939580376979 -0.18891595647831385674 0.090731191939637217958 0.54169261865597395644 0.53324141468829389101 -0.22723437558559622662 -0.23539458515285077711 0.37764168232895356514 0.12150303627357145198 -0.24999861224939190496 -0.25046391157797204263 0.11851531055790387459 -0.24542598743717744525 0.35348942485686607462 0.024622969221525001227 -0.053382514601128736031 0.21563910798992599882 0.18398429365184890139 -0.024277874542604532121 0.12269201814776641013 0.16520967880380602044 -0.16626386666536954739 -0.16745435900383912053 0.26129767677625637123 -0.13889438220981259464 0.27123253361031052222 -0.069426386637573611615 -0.16984614849009666004 -0.21683285314101993779 0.026230629611485360708 -0.080859211340342851404 0.67134946728726740961 0.38694641805109258881 0.20890736107267166011 0.29088965061298416304 0.68067564674193836716 -0.024263138330413921984 0.013827576595747978136 0.3503153619225458093 -0.10192366839155553304 -0.44978125628825987858 -0.11212641156451855218 -0.54849368520926866655 -0.062901934258619965346 -0.041212771232215797412 0.4325948192131771064 0.17521557905016510448 -0.070262757042536733154 -0.67864411487174602922 -0.46055772202443590047 -0.43143017971076957906 -0.68115094937434295108 -0.25232870287046427205 0.062961906370324810522 -0.18356043839846422627 0.25939502653195611881 0.54609740526406957972 0.18602318414363133714 0.11754730683053368767 0.32763928341284859203 0.049833618767772036584 0.60145935844286979588 0.59006250633855206189 -0.41136002341260435866 -0.33139360984210186611;0.10635481036464347615 0.15172255565892245333 -0.32722706159095810152 0.0082838447741968718185 0.5709382363033015384 0.0039090651311315845196 0.17098734384533073594 0.15730790375150380256 0.22795307563995564903 -0.28564308561781343032 0.09662462173685287814 -0.10049551396931552527 0.13003474770012332651 0.22844938040376308597 -0.012998108436090055964 -0.14391442144875671305 -0.16513669132416131102 -0.1182691599340020272 -0.036121310300055331499 0.1236729334998602492 -0.28889380005614018199 -0.131924566391592335 0.32994854866955725115 -0.047884973462871849303 -0.053624739456568856766 0.11926252439791136528 0.23098918344731245167 0.14032106001200128631 0.038837221386124963496 -0.054786177802720728569 -0.0087013928242338570151 0.027140823918210231491 -0.090222045262258257492 0.018486186530552624341 0.16702856919748221287 0.1153293606762584439 -0.068772983251038699581 -0.51456446234689978692 0.1945758387129475353 0.17388444987328760538 -0.070586427099708762278 0.13547692974099842522 0.2952954574494023321 0.10048701867081819006 -0.15374414660508428643 -0.22584467039180244896 0.10574550274260019478 0.085294175260329826993 0.095165626157618310454 0.057770422478671021316 0.020278491228890652143 0.061681555050823795583 0.016464482390505224413 -0.17832151847161609171 -0.21355883407734607693 -0.12266409552536912397 0.11552400991154009036 0.34476653743013119247 -0.39395169306177424406 -0.49036692123184311143 0.0040802270398450912747 0.21381104235898751309 0.025281764016796257066 -0.14755106151491664823 0.22384521163721693426 -0.43678001483764156143 0.035489086446111942075 -0.21575862838318468628 -0.26872306880247676109 -0.16831568225690909935 0.088617277019309104169 0.052602997183595741337 -0.13364995693934134113 -0.062073660495901336609 -0.30188624244617390247 -0.24345104431070180295 -0.7577307502636964065 -0.066438210542630771194 0.17226494680408299676 0.20803339093144579408 -0.28820848748427735364 -0.63885137644529144119 0.32115928429660561827 -0.35654072074462783704 -0.018461324851821791365 -0.001678957106086877149 0.14581974398887798117 -0.36117982815374216621 -0.0048733790449946648438 -0.30962612189771715476 -0.0059263177883566997561 -0.078554684197377822041 -0.15585225130874758026 -0.086324124377624308901 0.6215077515899463112 0.29136842770124204982 0.20624440435803581551 0.076338010060229652409 -0.27778728983156930621 -0.26735025869698392231 -0.20148718542215848792 0.17068403408098989371 0.11972896085010346912 -0.083975583152783528362 -0.062678431678454563092 -0.099149832372308649431 -0.14356414557291002909 -0.030045421549907982972 0.038178428781658037272 0.17859093790841140681 0.21563782873318135258 0.00030189529102383344528 -0.20338621141094376243 -0.20206427839914908873 0.11052547388789013549 0.19576615290374971279;-0.74186871973333756713 -0.11552839719262715523 0.16289251921294661818 0.12536851675075166845 -0.14875574762852133981 -0.53923238554638308617 -0.0048099412290381060586 0.27604478728010939381 0.097787646552829898816 0.15900918065491445597 0.059294198262071967642 -0.044349548744530925548 -0.0018625178913230198974 -0.23680600267464543829 0.041079654515796870662 0.067599450889116730057 -0.0036417783876205277183 0.20704784172290163768 0.15658412382753933434 -0.052432364341700433974 0.076131742914995387261 -0.021581069115438420575 0.59993175758284311705 0.012258450924971457663 0.071108241275581268726 0.17440229405649182448 0.33760064416035628909 -0.030907913657599525581 0.037891895530600280817 0.35614874956297271069 -0.14312801126320229272 0.16809438940037893517 0.25194041336133066178 -0.28151520318367501128 -0.21714069596336021961 0.26299399165601800021 0.40751131736074253098 -1.3461604905845185876 0.2597672881136539047 0.10123164992348833435 -0.92865454278781345288 0.04140455856659959466 -0.83011309085748841152 -1.7941162129842960216 0.12011975863946239285 0.14136386858867630578 0.075393485455301098574 -0.089883456625547905605 0.086423067563981798012 0.10681628831275780112 0.23484020217802534236 -0.026457487607968004084 0.0054694751930106470794 0.051927725460026954996 -0.41076114196914820242 -0.55957536281397246558 0.070985741849510008983 -0.17170228961154712644 0.13659836680276046805 0.51604586916994077406 -0.33442816687592169522 0.78136959074870582231 -0.69116979321200100461 0.42260541054515221582 0.30037030952188548127 -0.12077818986784413791 -0.1124434156875365326 -0.25953139141073217067 0.085491778099428053506 -0.042591309397270071813 0.05930757915568972416 -0.21518335967997376246 -0.054672743444376781241 0.56967672736764907171 -0.26456627481670769164 0.18664081654601294424 -0.57195994559506213584 0.13150925083558262507 0.20973042412726228267 -0.37967437793113512079 0.04190866512993220161 0.095600055599785849214 1.3044544665089989888 1.3950524968033266582 0.39311690113977232341 -0.12142380028233365485 0.79303626964287843304 0.23874498369011376564 0.074942645888384604169 -0.013587858251228332809 -0.07299318771619212054 0.30761118535922671313 0.17085360796451970478 -0.050585620923667765081 0.11656554580293979062 0.036666459630531708647 -0.50399315936640909364 0.35738266533397106128 0.024846848629975423761 -0.033654969791731485784 0.25058054652010519625 1.0649145761542633259 -0.35783671480235473839 0.022389444748408759978 -0.48423909492415084799 -0.0034956986935279488193 -0.44202128828703579622 0.57013063454465373603 -0.0022259811659797075489 -0.21830880647635511616 0.14352950913152437429 0.20917908570119958522 -0.14535095018080901319 -0.11620854016027289124 0.11285664231502978705 -0.15816182939710793365;0.30620941455016004173 -0.7465020472434424903 -0.64209252597050714417 -0.31405678837578782092 0.67073922771124994124 -0.26919157228058104847 -0.068087314303110171854 -0.30001633175864406144 0.16023825708778208221 0.11113422094032274212 0.075991775394460919779 0.33321294143695606715 -0.045483019353262363338 -0.10449324799796648466 -0.0074016523449487456668 0.22350331670058196099 -0.10151951317532216523 -0.21819062267118752296 -0.0060990259675697284375 -1.1472844832297999229 -0.44964805635756244229 -0.040229121340535245466 -0.23007784564705946462 0.21808536667642006157 0.20542782098902728771 -0.46504791070253065355 0.17611581920962529613 0.14491396493101449394 -0.26362288134578798493 -0.16575981075279561106 -0.44850258239791890302 0.02963874360866374999 0.15722846866995360271 0.22237567293566029569 -0.2021119771055814307 0.16014439078246062165 0.35977680152311430906 1.1742787814674282565 3.0929960542136281099 -0.077693804382157977129 -0.041307750105474709545 0.21540735658038395739 0.031609059378579537625 -0.15360611246924602002 0.090611444444603644888 -0.1762734611815805208 -0.091151246821623954641 -0.1656847762785763345 0.2658219221761232709 -0.1663423513780486751 0.006895461490752542201 -0.0030015344542508931233 0.19357273264266672275 0.13364933451108068629 -0.079304549475781693779 0.13101692390268532273 0.13016691769438817894 0.25847598745974231793 1.17759879159623293 -0.85695718694444289465 -0.3796999822550814474 0.90212621058829234322 0.40148112398061513995 0.22475362902517498354 0.039520795054934623747 -0.34520310316748992197 0.21456675056465426832 -0.19528746748403333355 0.13136184398804431894 -0.049392598565837664282 -0.088744668181573282961 0.26194923639599404508 -0.0094870569379064580151 0.17618514345466934623 -0.21729601395197534197 -0.093884402775396502694 1.7397171610382333728 -1.0792075397252884894 -0.50265017394538102913 0.088671650675959973187 -0.045649665656191662499 0.45430077442791888531 -0.24132313994142023938 -0.206979534272356408 -0.029371469285670557398 -0.44701954640713542632 0.013247207180356950287 0.018635854333197372779 -0.18488321054223907924 -0.46644604612896067852 0.19309548048359828631 -0.062702559100729693409 -0.3582025024002240543 0.16860172279998686395 -0.10101529037442913417 -0.18622641070367607075 0.040526878798279042382 0.16353530715807124141 0.9094893718374373881 0.64967039359534317633 -0.96970946935330792904 0.13952363378589890952 -0.010506831858544221289 0.21765998179003637203 -0.11255783363434442024 -0.1613745577405678866 -0.17048599369606731724 0.28961037900320280025 0.080743550152489212968 0.31426396617346363804 0.17852099448706051921 0.047004765650718857706 -0.13298701228451956236 -0.24773769939405468343 -0.3011018119363458867 -0.24136515790560059136;0.10656825165075947681 0.14059864459051932273 0.032139952458306392247 0.072658704444081664842 -0.030100984251266379998 -0.19680584719205146405 0.19928011435665488049 0.37061037754671738442 0.28172814063494305836 0.20663026973689430088 -0.11969470173815444092 -0.074644792385387292999 0.11640175898626732576 -0.11624045831321128119 -0.10003504887361680531 0.069146247054994933179 -0.22353770708973103032 -0.25873375873515680468 0.18794850178257596629 -1.7101584073235622796 0.39146231804317865866 0.47091991101517755025 -0.28379183530306578698 -0.021770707491071957657 0.063354668668373345652 0.07921061842705331979 -0.17270265778148069513 0.15670484279594198984 0.17415289636750841407 0.017381077459124462392 -0.0053528498339573751807 0.14855359421625394245 -0.21707013006325762139 -0.14890088193619918644 -0.18951257203908389304 0.12137319620847671076 -0.0035238660856267770005 0.46789846718187388941 -0.17517700433913885316 0.1476460685152397867 0.0090441638264638080091 0.1544453713236452197 -0.26598857034423212253 0.55279118502208401953 0.087299786562148984359 0.14149954737139777694 -0.23557614091908582465 -0.028493825564772711639 -0.29734849997490853113 0.21718250130365307493 -0.24984899634310958616 0.15783239548455968437 -0.065366527616807723611 0.0068407997384580879197 0.18723443655416030507 0.40791354701207710454 0.22459878261369140007 0.069950712106490273157 0.058536230259536886633 0.14713156305028241011 0.18885619574358217254 -0.0091773287410362169858 0.19434479019976516612 -0.32748730572763629088 -0.072599054282281527684 0.097791666206201735556 -0.038056927414927617381 -0.11821960956482598093 0.2116006485468011622 -0.026688443011899893459 -0.2362423815410401029 -0.05490674460045717048 -0.13516992542457023641 -0.1281204309603281577 -0.062912157603637400283 -0.16168351744483019927 -0.098252068720224766674 -1.8503461014585953492 0.34392342280350712835 -0.44774897797169643798 0.082723720232552200304 0.11555209761781490285 -0.30977335569893860168 -0.16178134645395325641 0.013455054256113284372 0.19822730199645244298 -0.19045183417439628948 -0.049362053288276960816 0.038986299845949652643 0.17753510540684788732 -0.18052985517651548575 -0.083151963004198969909 0.24140866552168557813 0.060883749465557329694 0.1727682437108619129 0.1668479308421986218 0.084031035272850732043 0.24015483727556283244 -0.52573535847830454859 0.67370680824593154323 0.26642625693244009755 -0.14189914663077429768 -0.24626745587583526165 0.0098946775479885618054 0.14008297387049220561 -0.011548563905561012866 -0.21088524098595656797 -0.057430941242520260059 0.10741364476072658152 -0.18896986881183727713 0.096263923728699268834 -0.070295085221505362871 0.27768471421228324569 0.41955549609889192242 0.27955361068142436931 0.10704413618924454865;-0.86299622407772580424 0.41048909875701999894 -0.29187474631660365043 0.36209208794679026422 -0.3876351341106216708 0.91295516971389278904 0.78403082706285420755 0.81259599551684380536 -1.0704513431296023285 -0.32596215530937999727 0.18029599830666331872 -0.88201813154567076936 0.81703903619580686701 -0.042058873268915553112 -0.3372990035276554055 0.052244966396585969248 -0.37614492538924410026 -0.24579871826536106583 -0.18605106203981816582 0.30584726888127622413 -0.10635006133162035191 0.20900747139857955847 0.29031668522900361262 -0.13045906084088007559 -0.87302799844519773931 1.2963925276942336318 -0.036980040764206842385 0.34189272496976075288 0.1250223829219923033 -0.15969569864716046115 -0.19318070175190285576 0.16610316191647811479 -0.19543447192944021773 0.022965349500098354574 0.10902276163869281667 -0.022576131124650018756 0.14196582780756769604 -0.51365942705288092363 0.044996747620673106793 0.40326009928941441984 0.072377113736174003567 0.056715731906833918852 1.0879589292909286335 -0.26337959434151053673 0.14659957159402914328 0.24130116685901373264 -0.063688805535630776955 0.04637329679710098379 0.036688666780100263887 -0.12590699605519994897 -0.14977416698415138563 0.17324004372936938068 0.042452544221761485954 -0.11508060316181598082 -0.011797107602146167382 -0.39424077201750579169 -0.23053937538581489863 -0.028332087333830982545 -1.102059499649816976 0.31906706414396568405 0.23245444048437485796 0.43761123790743966522 -0.43029585775556250526 1.4514849435790502241 0.11739122295067910828 0.5699715748950389127 -0.25899401051229509196 0.029832672758131038165 0.29146594244444740118 -0.15569095739672525469 -0.069758856735946825345 0.099155095271306586957 -0.30715442095710693282 0.40645230442253305059 -0.40134834185914475269 -0.31794703352571512811 -1.0963112052593280143 -0.28729927992541726134 0.57557229667412423968 -1.0536335112440491368 0.73392820644564515931 0.37246729727938304721 2.245565823896757518 0.49767382325736336801 -0.23545333352033542829 -0.14279228793690840194 1.2284936044102436892 -0.3088378902015375127 0.69084049339779329824 0.11597079197460924416 0.24894767270844067597 0.80499939067827086525 0.35887284451819900788 0.46445210188201613288 0.15147617926006251565 0.38500534472017367005 -0.27694855438140164594 0.33330905241461400434 -0.021932126539146445943 -0.54345975082779307552 0.68479914935044705615 0.1529013107607254951 -0.12271941060577865046 0.32655146802253398608 0.46986176008045865693 0.22397679980183418658 0.21839080353652201572 0.30615923362682301301 -0.021596725658855217556 1.2302429039773474795 0.05754972320847785705 0.04235314100225318068 -1.2890327598812336696 -1.3212935281279272193 0.40990455264692948756 0.33900295924190404495;0.067531875272107466657 0.097202977301515627873 -0.21057931968692775171 0.30058385350087118981 0.19706187897971788603 0.36414335327930930086 -0.41363034607770277074 0.27681521537165376667 -0.051649312561837398827 -0.17302824928753196554 -0.18853650190275403342 -0.22080025693382368535 -0.050118459192184335038 0.3476470159111133551 -0.30057137311416581849 -0.093164201228000551036 0.12735946310569859485 -0.047978972536433850404 -0.13223626240183719571 -0.41994029944008681721 0.0530328743924923518 0.5237473708518558535 -0.14268260163067239543 -0.16794675762817218301 -0.017323106527752877432 0.55361096977106993844 0.049368908170358181964 0.38200923839800310366 0.17740663058781247496 0.36902305932056772564 0.26668277341934998326 0.10713507159975133032 -0.12878553051823157793 0.10259118579535934923 0.26838939771906411558 -0.23893913381690257136 -0.24604190908016390638 0.78257793858422786126 -0.30344195157519249229 0.17774151866712217807 0.10016209352613460182 -0.15936454410783829072 -0.62032182269247793105 0.23566543731100075831 0.091852133636639091141 -0.15564000081496415229 -0.20160838841519918008 0.10385503853159164245 -0.12687319328124543882 0.15525925015337097013 0.21713892962695729993 -0.20770792855336439597 -0.0054388378923842552182 -0.1509573566636954467 0.16455175430206542275 0.16944794893924219892 0.22884955588688771222 0.2072111116857469626 -0.18795347461474321005 -0.38673081822218041692 0.26540224335482104356 -0.48212531690819276919 0.31467176649219891216 -0.34262660174520126466 0.28705466772536047948 -0.21476458137001958049 0.12504531078243952269 0.08623619924825257077 0.055617691920887099566 0.063387877819093246812 0.016613823095157687071 0.14104278270838419007 -0.36130720512779362918 0.035355557495241912713 -0.0039953172963596720116 -0.30524602326127914242 -0.046358003578678613765 0.27711930444963178699 -0.1206575200101816514 -0.32987613492935419224 0.53047971989857711783 0.031311534017146064324 1.0763208273923208225 -0.099658872134111411989 0.29454875330901819641 0.13034359411128476625 0.4655571829723358368 -0.15159845882548664275 -0.063908855766948297061 -0.0098702114011652818115 -0.012511749312369639664 0.75294675471850502912 0.023128169566136710933 0.2726638001579627657 0.40934293570541790963 -0.16722318688217824301 0.62034054685638739812 0.30475768498474198331 -1.2487812542612486411 -0.21837129220545511976 -0.66875972478048406611 0.14935616644413596266 0.0080194903860764076009 -0.49442740567236520555 -0.41841103752408109751 -0.39299496507887260455 -0.0073982530513038323103 0.11781159287257515766 0.26893761719857661729 -0.49978534667360841048 0.13226453612362135126 0.077998695103427370667 0.67130722830718803085 0.90171905486374170913 0.097419353045927359336 0.36761808096223613784;0.22891535713711994027 0.18542486501112384611 -0.034048803288852402815 0.055694866593407992006 -0.31781903323566290664 0.10289232482608873243 -0.35269952506633350797 -0.17092117292534408923 0.16550207101294595047 -0.063207115223993276532 0.26978295918516953522 0.30680469838292878659 -0.32212028691312599715 -0.10576585136747357341 -0.040142235433925317623 0.080448574965477720466 0.26181255742540088249 0.26814671999711892081 0.43181519104730553549 -0.00094823149062062822567 0.12670818184290513764 -0.23500657154403881144 -0.10450130239983210223 0.32229723209693839081 0.11570474058035890019 -0.24427520286487938717 0.019718676764231782977 -0.20530811798012232883 -0.30508179457965411974 0.0044804430716453135658 -0.3132730043473859749 -0.01289003491123225098 0.094011988866301438028 -0.27971313590385898928 -0.11898892967661602038 -0.04415785764975713179 0.7391484989510098691 -1.6938263825786814554 1.4759840556560301916 0.53899857684753182951 0.39409949917064285296 0.081017765982680831072 -0.012381483927706334047 -0.23611376646372006505 -0.29948517965990528733 0.19607887541273885668 0.014474463656832897013 -0.03174009167096326911 -0.21627849319775493964 -0.014206452908840096552 0.20107392930459569436 -0.36657178810952906201 0.071273446487091524082 0.087813600665849519955 -0.43715513623743768035 -0.46028618880505678401 0.53945365094064923195 0.25578487978754765875 0.68238475697816225463 -0.20363356071395197211 -0.30641264263472373086 0.48134754768538684511 0.018632670274310515757 -0.35831825681304607656 0.42601640923398442773 0.08275166949775639158 -0.0034291320652183906841 -0.43299018306954745183 0.076016156610633128787 0.0072279270933817895903 0.018269684668903621305 0.050929614759273295066 0.36260457404034646123 -0.33014078874491348259 0.11032526242202309041 -0.032295957685350942801 0.5090186044467316373 0.14203582287883378954 -0.20692601017369743888 0.73632283452002156299 -0.4624043030664282683 -0.36724144271404451922 0.17756510787859502987 0.14073741088744717853 0.35347923214220816623 -0.25045933147024440624 0.2345818850944732803 0.22257049922305741085 -0.12037781082952142553 -0.22326868599544152927 0.45320089027364712786 -0.027201618221643981271 0.36448709571152460018 0.23897784868466609431 0.37258349682830110838 -0.19809430492997320838 0.16924593705570367685 -0.30937881266720212992 0.0629493374002026429 0.3360588431182103264 0.22295859270846166145 1.0185017477115072548 0.043479942669731402871 -0.33872303250319013568 0.02921917919471638328 -0.25433018796101131143 0.036137645451956149079 0.096854862621794310384 0.71834554157511953942 0.15138903966831501746 -0.095725639810338769564 -0.030655159019268407583 -0.11720612535587940362 -0.14239461456363539105 -0.3955116614244419404 -0.18122145562370328697;0.29029767453060301152 0.48943621727089647866 0.19210529132965373234 0.27504033207505856895 0.01377017620612342938 0.094397235481122179768 -0.1905855411265093835 -0.14882929635887118258 -0.0041800145555542511655 -0.1189438240463085994 0.020913631347444686104 -0.14909425555121869067 -0.17637296663532842089 0.061500046170020694625 -0.19048115625493872161 -0.025797454337198499202 0.0095444679722334214295 0.029917286350045188548 0.081006192444801769503 -0.13645964479539934855 -0.12217129322981089279 -0.22969041153427327551 -0.047734375023036922092 -0.090476719789607917832 -0.16237708142571322112 -0.047946149810295789206 -0.13300613317863133056 0.12913567984518956044 0.1660139903945587192 0.039839368904123664827 0.13291927098878858482 -0.15139531745207862601 0.024401375196697321079 0.040102842185443215994 0.0092533676713231656497 0.1457938446932912635 -0.12207811020448729178 -0.43146055045231979097 0.27299997142682841389 -0.24963367025561894463 -0.048027675230384800353 -0.27269015642226518414 0.012457488332318933724 0.13853420951167738639 0.10857264735177733772 0.017105930042706333355 -0.16984854852844358253 0.023735477042858783847 0.0055974010573539003874 -0.083627826940365093678 -0.043953054341933132931 -0.1579906542066885633 -0.19120781327011351913 0.083901092008797847899 0.19009314068879429316 0.0045521941308881500032 -0.11407401050701120038 0.12148641131512827318 0.16873133459146158475 0.0051774889530028372908 -0.37147770542004504568 -0.011429134314407222994 0.34005143373727048095 0.017682960073342600393 -0.093324267493408386009 -0.05638679872783547431 0.012575966883339374791 0.27432252914343563388 -0.19564030166903376151 -0.17721728619163520935 0.1468016884969481628 0.18792460461632967683 0.050889147988257839306 -0.17865346896254485909 -0.22645208272647199266 -0.032392268576646010558 0.30411284306614688733 0.15867728987476154012 -0.17574262722273831239 0.2275522671850751244 0.1372994883778076991 -0.29100736069224275582 -0.24180983094731836602 -0.050592012278293491123 0.12077069694076694728 0.005466642359435672921 -0.36193974424196906359 -0.028374243575898874109 0.021614350285976854232 -0.083938346459876009287 -0.13211644391830021372 0.18289376882623087361 -0.094375490821297855493 -0.20512938083234030784 0.1469475900363532983 0.23360306406340242136 -0.32078120677547694584 -0.32185582751708435856 -0.0058622070991255527395 -0.11624946106581729444 -0.036410631940396842587 0.091528218095201688276 -0.072637501633802115109 -0.054726814777925354705 -0.19435070847542182393 0.094730650336909041909 -0.071073354199237326334 0.1644778461902910438 0.020921613820101048198 0.019427083754917841285 0.092879383828650324828 0.13868143470445787324 -0.011153472388616098715 -0.096512954555713861837 -0.094542123445367748369 -0.35201148882758370728;0.28832812756680725741 0.00061476151539326454303 -0.24281194664049940424 -0.31865719727097752134 0.173286938602151247 -0.075890889145731513232 -0.23444252819258173948 -0.020657164515094007806 -0.076456908838646447935 -0.20598850114238334563 0.082240345290131924849 -0.13154940076720042508 0.20128466722511151321 -0.27315050685240999107 0.013436693334179969708 -0.29670407882836014046 -0.069779758926927351603 0.091330088101577833193 -0.30336639932367254202 -0.14493536235074269691 -0.071108434786850485687 -0.14751843758825772257 0.075591794947213894473 -0.11443666486368760105 -0.068372712982727748554 0.27499213388275201009 -0.026548355377222589147 -0.26654320613705151377 0.14764951123821803969 -0.13832733333766653039 -0.040549519623069678331 -0.27172156904852556858 0.19174204681908640913 -0.20313586407791187072 0.27367902270223826156 -0.0016159014276441894739 0.029032240641162831984 0.13344926607970350463 0.014272737905077619372 -0.26362646844318832207 0.039883740048675161982 -0.0094749709876539942727 0.043865683015421930158 -0.062453118152011641295 -0.18054315486432181981 -0.33890415288079411837 0.31797577078577987653 -0.067726640363866941197 0.10963996117223838433 -0.061193720098668608065 0.19383057521703600523 -0.31203734638469926566 -0.054648330333052844154 0.14093082022453423674 -0.15840023112524476145 -0.22357390619212139105 -0.24417400196734440065 0.1008300268919622017 0.10721338872342506265 -0.39250304855291773265 0.22025937915695165126 0.21440191629271901363 0.40516838138957883553 -0.10975056327970819647 -0.264266910557710899 0.13516433017998596977 -0.25443775692623676887 -0.034850482677888719452 0.074555820042247519797 0.02855066437933515 -0.048572821674896481114 -0.27385595971182663533 0.11586021333276472212 -0.24056775062317062308 0.045965112750751116466 0.24638293273293476737 0.13536751712147795934 -0.36512832906181003079 -0.23524581900492400055 0.059858385998861167454 0.19205980956837845341 0.064024323717346481866 -0.083690949506252623746 -0.017256099604941874809 -0.068048779737643894094 -0.39327656321303700038 -0.033670473232468571545 -0.29938023464467389267 0.22030420473945461213 -0.073122036177523996869 0.20750953476914069107 0.056452073235673201623 0.10819410290389187834 0.26942109099874822498 -0.056354102123597843432 -0.36633412610901716633 -0.12729359957845085005 -0.20505188360039203199 0.34748150021450052716 0.23728538242308575001 -0.17957311823951588314 0.28867838573431103821 -0.075496442105843108994 -0.023193267117019945867 0.036330190370981743642 0.019382385605648817795 0.15759589342899640863 -0.077179479831276529 0.2843759409074382849 -0.0012412887820613513392 0.00040400832332689485139 0.17459643114480291604 0.21561724383905894742 -0.10550596178034217509 0.20555953551978464744 0.13082314853961882206];

% Layer 2
b2 = [-0.082746589755830518564;-0.26744419896244220336;0.080131185150143391382;-0.53591085001981286773;-0.21152306918893087895;-0.24049834609299897137];
LW2_1 = [0.052791060291615052313 0.026461972861658522582 0.12844829505675181558 0.033857531380678949906 0.0053129887468420580743 1.0222701390038706482 -0.12189188824647853582 0.077187369163029942443 -0.76691749590893987243 0.71248345604446228219;-0.01974460326677502861 -0.17303345649884638302 -0.0020748239606144178171 -0.06416480734943477704 0.30972341734104930078 0.86736826835832303573 -0.28267984027161840999 -0.42569911069359533951 1.0112642635207202968 -0.45450340191920229893;0.015241152216162137667 -0.17932466666929958166 -0.1577530711920831219 -0.04065750523710351394 -1.5273907825884540657 1.0149973196818897758 1.2179800878841564593 0.14964249298638951369 -0.36875506332775298546 -0.22937577829987337852;0.11388421293322147088 -0.084726669562810316694 0.22860897624912501769 0.0071007463012609794983 -0.88197959079570520391 0.85131931417341355495 2.088129788357565797 1.2025576879343888859 -0.42222299197746648858 0.91445287575781386558;-0.84211515844166939804 0.26134320245256309478 1.5389288978212920522 0.22212777916974174586 -0.16966478135858292786 -1.6888956381094595294 -0.28316889355382307558 -1.7689569878507831469 -0.20422275117829580271 0.37520225140077800852;-1.7312974439444634989 0.78594064786297923586 -0.20353316671189583542 -0.089397612811002738487 -0.0076517268453100348302 -0.9223501112425254167 0.028168591780647456169 -0.68393501966040726181 0.26077034774041502052 -0.11232097100965152126];

% Output 1
y1_step1.ymin = -1;
y1_step1.gain = [0.020000174355758;0.0200029028418736;0.020000166378623;0.0200005686198902;0.0200001675433079;0.0200048518813476];
y1_step1.xoffset = [0.000871771189849824;0.0145121030509472;0.000831886194646358;0.00284301862120628;0.000837709521874785;0.0242535229772329];

% ===== SIMULATION ========

% Dimensions
Q = size(x1,2); % samples

% Input 1
xp1 = mapminmax_apply(x1,x1_step1);

% Layer 1
a1 = tansig_apply(repmat(b1,1,Q) + IW1_1*xp1);

% Layer 2
a2 = repmat(b2,1,Q) + LW2_1*a1;

% Output 1
y1 = mapminmax_reverse(a2,y1_step1);
end

% ===== MODULE FUNCTIONS ========

% Map Minimum and Maximum Input Processing Function
function y = mapminmax_apply(x,settings)
y = bsxfun(@minus,x,settings.xoffset);
y = bsxfun(@times,y,settings.gain);
y = bsxfun(@plus,y,settings.ymin);
end

% Sigmoid Symmetric Transfer Function
function a = tansig_apply(n,~)
a = 2 ./ (1 + exp(-2*n)) - 1;
end

% Map Minimum and Maximum Output Reverse-Processing Function
function x = mapminmax_reverse(y,settings)
x = bsxfun(@minus,y,settings.ymin);
x = bsxfun(@rdivide,x,settings.gain);
x = bsxfun(@plus,x,settings.xoffset);
end
