function [y1] = nyMMFunc_100k_R097_20(x1)
%MYNEURALNETWORKFUNCTION neural network simulation function.
%
% Generated by Neural Network Toolbox function genFunction, 11-Mar-2018 10:53:33.
%
% [y1] = myNeuralNetworkFunction(x1) takes these arguments:
%   x = 116xQ matrix, input #1
% and returns:
%   y = 6xQ matrix, output #1
% where Q is the number of samples.

%#ok<*RPMT0>

% ===== NEURAL NETWORK CONSTANTS =====

% Input 1
x1_step1.xoffset = [-404.581176757812;8.60000000102445e-05;2;0;-2957.85913085938;-809.162353515625;0;-10736.2490234375;-43309.64453125;0.000199000001884997;-10296341;-454.342742919922;-10296341;-18369726119936;-18369726119936;-38660787404800;-170980245504;-38660787404800;-8.68130111694336;0.000484999996842816;2;0;-91.1437149047852;-17.3626022338867;0;-49715.4140625;-88870.1328125;-243.534805297852;-8597241;-2643.47192382812;-9931523;-1038587002880;-3242250993664;-2190175109120;-497979031552;-2305212022784;-13698.248046875;0.00168700003996491;2;0;-5126.6083984375;-110918.6953125;0;-16438.21484375;-447066560;-61.5993309020996;-24130070528;-61.5993309020996;-24130070528;-5.76772661418394e+16;-5.76772661418394e+16;-3.85762623813059e+16;-7.72302067623526e+15;-3.85762623813059e+16;4.70000013592653e-05;5.2999999752501e-05;0;0;-0.0472670011222363;0.000144000005093403;2;0;-388.480834960938;-0.666370987892151;0;-462.499145507812;-2.86421608924866;0;-903.080871582031;-0.18970699608326;-376.045501708984;-8311.9716796875;-1986689.5;-23777.435546875;-19282.58984375;-2789810.5;-0.232209995388985;0.000350999995134771;2;0;-18.6072731018066;-1.31143999099731;0;-1725.43176269531;-6.16417789459229;-0.0936689972877502;-946.219970703125;-0.506271004676819;-946.219970703125;-4422698.5;-4422698.5;-5857961;-88010.8046875;-5857961;-1.73369300365448;0.000182999996468425;2;0;-154.079299926758;-3.46738600730896;0;-231.85661315918;-166.182022094727;-59.9184341430664;-59.8275909423828;-79.4212265014648;-43.777027130127;-28004.154296875;-28004.154296875;-25173.306640625;-3973.90625;-19693.0390625;-4.32777309417725;-4.27297210693359;-6.95128488540649;-6.94918203353882];
x1_step1.gain = [0.0032099151583414;0.326938955949836;0.000801282051282051;1.39189013957632;0.000676164723037003;0.0016049575791707;6.04925898252644;0.000186284799806147;1.24823775007332e-07;1.25162092734278e-07;1.20436782055642e-07;1.20095636891679e-07;1.82170241335435e-07;1.02615256905948e-13;1.0887478599222e-13;5.05158404789208e-14;1.17106003739773e-13;5.17074500405196e-14;0.00151405487901981;0.276443290413308;0.000800640512409928;2.31221087830426;0.0219433671547109;0.000757027439509907;2.1245315013743;4.02289719941926e-05;2.19878074395466e-07;2.02468450336696e-06;2.28753346712843e-07;1.98672303355318e-07;2.01118628390673e-07;1.11621356912083e-12;6.16855267278337e-13;6.55991403444632e-13;1.13610675295956e-12;8.67439643915428e-13;1.09056625576068e-05;0.147690379474353;0.000800640512409928;3.23571713596529;0.000390121469119733;6.9466870801579e-06;25.1847944464168;0.000121667712644626;9.09776598781058e-11;9.89279386757416e-11;8.28841237414288e-11;6.95747376799393e-11;8.28841340384504e-11;3.23191095707893e-17;3.46691241181557e-17;4.49152068599083e-17;4.26551939639522e-17;5.18414582896786e-17;0.00827183827350469;0.00879266690332459;0.000500064278281864;0.000500673941840414;1.72945293679548;0.264324461880008;0.000800961153384061;454.44214986738;0.00514825911605422;0.694410471229066;161.75994716379;0.00432433231374741;0.0022230905692735;0.00345271369092438;0.00220415313870698;0.00222971916306663;0.00531426328061295;4.9097480547203e-06;1.00669984608176e-06;1.12100633965211e-05;4.78098892047838e-06;7.16881584558774e-07;0.903785709440797;0.230301305127816;0.000801282051282051;50.4515429385721;0.107484852243385;0.403130464669819;64.3355745152132;0.00115913016280388;0.00179199239475103;0.00180179262028544;0.00210416383032956;0.00130965463555057;0.00211337660934638;4.3387580237364e-07;4.5221258046122e-07;3.30474780698807e-07;8.23994707868239e-07;3.41413816099172e-07;0.661980947252276;0.2374918122488;0.000400560785099139;155.836055592859;0.0129803289666471;0.27075022748891;616.712917520158;0.00862602093918672;0.00867588070809648;0.0162439195445625;0.00874526538876672;0.0140227097673418;0.0184981102952226;4.05409765743231e-05;4.22108301530592e-05;4.44835741578758e-05;6.24374977172814e-05;4.51135584041713e-05;0.298009245006309;0.301664533147735;0.189514379072948;0.189561654176609];
x1_step1.ymin = -1;

% Layer 1
b1 = [1.3142553197498378914;-1.3313740050869571352;2.7237433124190237876;-2.2602647913649995814;-1.1756915416237947447;0.82795765023001277605;-0.42635758037081911143;1.4739576869579926743;1.8028132682697837197;4.8278777612869312463;-0.75260327825795758638;-0.64087939349750300266;0.59761493755215433499;0.63942878485703213975;-1.083255768355970261;0.81989590897512265588;2.5716099175368878349;1.4591314999857001311;-0.96883055068945567179;1.6153600543918760213];
IW1_1 = [1.8647813990294737074 -1.2802795917405465076 -0.00082655846375685737559 -0.4235007554133093377 0.066377302717007813371 -2.2346124200757948586 0.7546728300260266975 -0.74733976847450067638 1.5973531311703510482 0.21346194184382166759 1.9838645099819134376 1.773463666228333846 -1.2044024882426394019 0.25923789273797770427 -0.26090617375129981914 0.4820305019139297098 -0.13059771452253562951 0.45115140570642781048 0.27331195924222778659 1.4823090953137385561 0.48086652707992821876 -3.5391602651330016371 1.8140511102836509583 0.51111954989004537708 0.66714180010817891731 1.0966614188940662089 -1.7266407663859013599 0.3018753451713629965 -0.95132017310063687887 -1.6778158839547807624 1.9488256102263596947 -2.0111588389317156533 0.16707058973584643091 0.58380858561972293064 -1.2801939075765904619 0.16542458107531246569 0.28261059786621084422 -0.99599156534707011801 0.0022914103373728594848 0.59181898066359395205 -0.32431649622647529263 -0.056181196210731872143 2.0825302980779385464 -4.3994956630385475549 -0.34498128954750428843 0.25423529687742579819 -0.77537577429697712716 -0.20343222737355956542 0.28334303577825048492 0.26292604094303095863 0.51182815009752924418 -0.40760223860931060758 0.1126965544884861864 0.46451038628648594342 0.2953503161799586052 -1.4877746572035182027 -0.74321483114044717411 -0.51306828613034216602 -0.75599444967378293114 -0.14683824414871729513 0.47515947775531497399 1.1475064565617041357 2.0508940659475753954 0.24610895918909722613 0.38553865878573728709 1.015621757315094964 -0.94594078182240992625 0.1759210061138159753 0.29243107563885650801 -0.087727246479381987276 0.70324940578375938482 0.24580224589882235242 0.41423784585424011651 0.7866276028822662969 0.53210154325560088395 0.13141460245003727669 -0.27036088248582701432 -1.7817015794246728877 0.13282927114099116195 -0.88568406895429396819 -2.0644381779193983206 1.2171340879784877664 2.3378586498041720176 1.5565949072911973161 -1.144387922427003268 -0.69302355902308798719 -1.0488082967679115409 -0.96145878114413529936 -0.051763750938209160402 0.057718657711362447715 -0.39142638672056950799 0.3541857127716507847 -0.66856130705587968333 -0.31387383036618443644 0.61236244271046713639 0.11636772249582438832 -0.01343525066019794767 -0.23233585185876248769 -2.8941344863037055113 0.52485834169573652996 1.6303252704172495058 -0.40496889391010360004 -1.5229147425602682642 -0.13411687212219555732 0.52606790537045688971 0.87578007947769531683 2.081669694046684338 0.81086294296304683993 0.10407106962516693427 0.39017223588846733362 -0.045776242409495515595 -0.82869752241512517621 0.044482679484329962216 -1.9026805185167392498 1.9671497743519481549 -0.6791490788745673246;0.080943971806212239306 -0.15067531676357109882 0.065080414092532040682 0.21063561974824734913 -0.2767353065337316842 0.15406054177083794432 0.00088962328220425213043 0.15932173243687108855 0.13365251088469265461 0.060961287209046470525 0.04388726615096689293 -0.056919445845831730113 -0.13250076003037913885 -0.1863493532721186563 -0.23180293950648936385 -0.29908563368122897952 0.28607093617487749926 -0.29652827700033834724 -0.13287691910476406854 -0.036369249192795938264 0.15932215679199668301 0.18545193667454551445 -0.26237566433736964067 0.15102744829319242337 -0.14974416284521380183 -0.089342857803957814733 0.088976830208493562502 0.25114241705240614166 -0.1371850205010567425 0.12611589822900315383 -0.021032039013541024841 0.054539557985752828984 -0.1815731732955820632 -0.090093798325296362006 -0.15454659158338834857 0.092268808657401793494 0.12051858024942607717 -0.11549935529688291902 0.081785454677483243602 0.16145941148858894421 0.11593042826401800394 0.15575502112089073536 0.24978436862874070501 0.06765251983908497635 0.19461528387875992596 0.09723067396541973384 -0.1733807848341991642 0.21488049830479752367 -0.21123046576227269555 0.097312613790410326664 -0.15489937273886766889 -0.12879031946755878368 -0.15044888533602984726 0.10970261833355783587 0.11542123133760762155 0.11677242340637508655 -0.10211901075811156969 -0.084477302509985446877 0.17677348769512898907 0.17443439954498174416 -0.12298989146531877359 0.070532767072980215306 -0.14675370702641721277 -0.065786281322064446564 0.2251399813639445302 0.019693238795312296985 0.013141436037355937183 0.2277256107774863203 -0.028198176220134971159 0.082185213859225073052 0.06567270212351285219 0.1565450023584973871 0.032145425868348911913 0.028970442949106622182 0.13143832935737834178 -0.27288768876727226287 -0.14113083554457486746 0.13137060681801820961 -0.0053611232392426775087 -0.11276460533469938319 -0.028947385706407209593 -0.002006628752090603221 0.0080567827525963864321 0.023821993546976553968 0.23169931841655855287 0.15677264741376309432 -0.32830651904859253776 -0.066323277009465830822 -0.31128933613774617539 -0.2166617711957331549 -0.31333151544145404488 -0.25225114457134378831 -0.11306634909381066412 -0.17816249739477571512 0.053163987779684951374 -0.073249865542109215966 -0.11210753405015447259 -0.041184262868899923493 -0.13363200187356200077 0.14695404403652947978 0.13077907028884980245 -0.16533664157052369026 -0.10434524671033885979 -0.069437059693260111404 0.21567935205504176754 0.15832949866287496232 -0.12779094264531512537 -0.069409900826913506489 -0.124613288655788787 0.11672887327521683232 0.16119962715476771065 -0.069292144274299929951 -0.25859561671697839369 0.05285554507041829303 -0.054630192906989859247 -0.25239311944917053321;-2.7720697876723425779 -2.1819995147571642491 1.4572212623785776309 -1.4239132616224603467 2.3146771684148998993 -3.3817844688470790615 -3.2708540081151351586 -1.9922360540003558604 -0.2702778377463939119 -1.3506934644277515112 2.7055008879776227815 0.090572475964857485087 2.2505107497286434004 1.0340589111835560843 0.82903807290289632803 1.4299465273708855673 -1.2345462759378886819 1.2146283877514223448 3.6523182233837738764 1.3780316801328755805 -0.5920913395004293589 -1.8145921935475002318 1.747906100009736674 3.7660594055837410821 -0.33943752954065981031 2.3498755698842987982 -0.8580890584246869679 0.70586983120007318337 -3.5978230292873178975 -1.2187485700930029697 -1.8398803807109040953 0.25143257911424926609 -0.50357914899580769053 1.1943353213430933923 -0.40491471083494334771 -0.40724238375614157937 0.32348722408590080413 -0.10943628487612894196 -0.15141835777168455301 6.4455625745771243373 1.7424836721881544754 0.08448234619776839871 0.72099413422684599517 1.3203760037817557915 0.52049762911178087954 -1.4660534490459251611 0.13399886179153921995 0.064306283857768153922 0.9561715001022779159 1.3275934531196864619 0.59884556694610369121 0.97344821739662357185 -0.95947138495003114755 1.1880756879595351094 3.1126072183373949542 3.6959934210901028706 3.0868757370107204885 3.250356842600223839 2.1136258445598818945 4.6961044358857497727 -1.6724368264833762154 4.7539326549921856468 -0.71829667011177589231 -0.026524042237355369145 -1.9029070165114785329 -3.406989108821761203 -0.877361969012948828 -1.4294582136315732157 0.031440906005791711963 -0.86414126252970135944 -0.32400540961186230504 -1.5134218982121605546 1.0607524174807687611 0.95967113773900103446 -1.7361517205689815935 1.2902460053478328472 -0.9541289274060261727 -0.62532936746212075541 0.67998240649305585759 -2.6774998858064473772 0.087852553093918400728 -0.24987000458319974516 4.4744860291221808524 0.021739697644674427224 -0.27837636428824574786 -1.1594107625831211461 1.4241204225827213126 -0.48778832543461531079 -1.6915320111957901084 0.98450006286901758923 0.75107963199867144866 1.3430520009822386474 -1.3694197397268863536 1.2076373869067134059 0.49594038335369000636 -0.053163365034579038171 -0.65458895302122055426 1.9204313255601799248 2.1071687748600340662 0.66253514320401896143 4.2083823658078820529 0.18343880370480428188 -0.091381670601902650897 0.021698351715707081544 1.6166364397903856265 0.22174447908998523582 0.16380367864860920224 1.0503672537830197609 0.51024804626930875262 1.6465884180114016555 -2.986531622054952706 -1.30201834845147979 1.2603412436418859333 2.0367810867468585379 -1.7555507639781513518 -1.7785087934019485623;-0.30065546014940192077 0.531379985417608669 0.04405211973629660771 -1.1184298116853754745 0.058338571348099450831 -0.19376047595382406286 -0.62970932813037006071 -0.34139089443436476667 1.4906105211055364901 0.64788052685480845838 0.21324963593134280138 2.187894374636181638 0.73715227762351631657 -1.0584905038721090786 -1.0693696415471616312 -1.1091772000692445843 1.0860523777352826258 -1.1415952991191928856 -1.5696539970652239049 0.72131274010415524778 -0.038099539279162195071 -9.6752473698261987067 3.9474585376517361546 -0.81625005260541005914 -0.96585643544545407568 -1.1880478965095411237 -0.079229511022203380488 -0.55657537686363178775 -1.4572838059316177706 0.42062643212093941969 5.0338934421378231931 1.6143855435973093471 -0.69717665961577945932 -0.43901025643890750905 -1.1276111195487192873 0.72609503138680719925 0.15174118064836961128 -3.566171690812741879 3.0776363996003777146 0.1424919179437706962 -1.078874623192896065 0.80692432634346555886 -1.6982781799265722622 -7.8662335623549157759 0.04535426101492755907 1.4676131177014624107 0.092140210887220630465 0.53076925471556291036 1.1489725561007892995 0.67843190612288561958 0.65088734548884652487 0.16332923665176618533 -0.32635232693668397852 0.49141685858261446862 2.9927867108344328173 -2.1227612845768888405 -0.67829789459269240748 -0.76721732791484331671 -0.15055625269613864825 -1.2625096480242317121 -0.095768260398974319747 0.90945585658579408683 -0.31228659264442809596 0.41733791335636738484 -0.41777153196379163136 -0.025461328594859666818 1.2985418619649484739 0.30880749753535308155 -0.047040988381049420042 2.3408408905382338538 0.72308198727472627887 1.266824786117376922 -1.1310642173699729796 -1.248037605354093138 1.4078487691628096545 -0.9164208220087231016 1.3010631962258814021 -1.1475240052456474604 -0.99289526756091606163 -1.5879960396431367364 -0.81172532336124392227 0.23728999548480039783 -0.89557971247194789743 -0.86309869398536409602 -1.2624726971630759742 -0.41858709193807597249 -1.5149735246445543702 0.65834572605073315987 0.76943582667828214205 -0.54935769139093382218 0.38301408471390330224 -1.8032865188864855011 0.2739118703526409182 0.53757834971780582567 -0.18461986914207517696 0.49540666779791686647 0.1255456459258802171 -0.31917645654506054953 0.05053920624951069307 0.054239710822605348428 -1.3042304507772004563 1.0614863426937015678 -0.54060536022696714653 0.45856528141303465329 -1.9767122881730254669 0.18950006907078575935 0.96879863839713187268 2.1497486659959519351 -1.3342720523668265553 -0.67135442953996937732 1.0563095149004837481 0.22330030651675636388 0.49693573963267978488 -0.709757075372319024 2.9670672802417348279 -2.6837494144794455941;-1.9197726425632926084 -1.650249096316894315 -0.52955168440603961333 -0.29076019342474967999 -2.2093048977996700977 2.2919752109721849287 -2.2423990201177868009 0.39146959802650255211 2.0970205737208065244 -0.21736665386685299906 -1.9082601308054747413 1.4674262502882815529 -0.49698827419140767514 0.88031916462638615251 -1.2917141358696619946 0.55719123140453175047 -0.7513234088691295165 0.19497772495704174256 -1.855596543615846139 -0.35000633063035124781 0.14440574857309881884 -1.0218555445726493769 -6.3794317954677675075 -3.7096397767102771148 -4.275363763018007468 -4.5438933562063459348 0.78363528092003786885 0.1965444458119105231 -6.1311289635334560444 0.83255730779021142052 6.0627881673453707378 3.1676864211014259531 2.5841863962781306263 -0.92376406030492397292 1.625072710685520061 -0.26651098687850161006 1.4412904851893142411 17.670818567831602763 -15.628985674137521045 2.8691275323320493129 -1.8460591865708095849 0.17276754891626933119 -6.1958719211134445359 -10.420744093228471172 0.75677342323220331277 -0.42391988058670426742 0.5241161451339954036 1.3662537736609410288 2.719520626322807999 0.21555966333542664337 -1.7065599861900118128 0.394934528366512827 0.36566907782520996495 1.1820945205838937486 6.2126878489130774597 -4.1823426005516664006 -1.0951334398479819487 -0.71975607048581946579 -0.40855861000189197529 -1.7249954418416226787 -0.15494586764404943979 1.1843571647386152978 0.13507080763748724461 0.87531528182419171547 -1.4163502120840745224 -0.91326127301282089554 -1.6534033636147569268 -0.47244548684494691582 -0.22428338926091229144 -1.2374102889275220285 5.6747019542735586128 0.27760705254822715116 -0.37491552478348033617 -1.3027422399035395451 0.69834773070152311725 0.56341069688370126745 -2.5534797265795496912 -0.46533696811391428438 2.1075449925586928757 -1.200818274220395887 -0.34462871530829136679 -0.22371369190545359329 4.699899537192751886 5.3394183457360337997 4.8841770870032750196 0.91639407063298117251 4.1909977911905986758 4.2779487585471764888 3.1010903799123297198 0.98087282982361467809 -0.58531885432494823451 0.26481053528285741772 -1.0600011789456014188 0.36823311884394338556 0.10817051920445197588 0.39277337552873342608 0.91511353247788052023 -1.3170066576140706527 0.69128195274318038344 -1.4302247073891620754 -1.4838713783864874163 1.2454644387858897492 0.028575809938827453904 -0.73788428275916850829 0.62281978218898348398 -2.5188850321951923306 -4.9098157143655143386 -2.8941964607410293198 1.9684023362921070355 -1.8691374675846137432 -0.23531594250834161897 4.2578360564135522282 4.3430719970114655126 -4.0938655881995877905 0.91273397004527023757 -3.5425725865223314237;0.57455645754938544645 -2.7559477796814180195 1.2161544957796306399 0.54314221625703340557 0.54649742941810186547 -4.7639430415202781433 0.83218205705603609523 1.715687164592690106 -0.52676618785786943899 -0.88533194376735491193 1.0083947647509892143 0.42735985008551952147 -1.858705253905619692 0.63316683190132094783 -0.5329343623816793496 0.38461866376576403503 -0.53567629034931896204 0.34315276283889700748 0.80180843395632150905 0.25566434666809351173 -0.17883287023123292658 -1.8569842251872858974 -2.1081466291130515067 2.1655610856868565683 -0.13270617804119302918 -0.43351237738516101849 1.6277598480969555084 0.42251233457369147262 1.5273483638682816554 1.6594166143111124256 2.0048777507698467559 -1.6502419593223689454 1.9068926354747934848 -1.9668474703375511403 0.21547482825497138448 -0.85967778201783040526 10.175398426950899022 16.297707906839178804 -4.7290373400740195464 -6.2474557626291007395 -1.5295124449145143242 0.59949970186235146397 -33.469465872510028248 9.5511579503175294548 0.54094222880995612712 -1.0084883485737414777 -0.63598687119089869491 0.74596688422391754791 -1.9848987171536085494 -0.03120943615925543535 0.14286527152356512382 0.4818892624503587907 -0.19693017888584279929 0.97650709127375523444 11.353374410070053102 5.0977739168229518896 1.8669409421402782812 1.9033955050279947052 0.33969026177696687308 3.4784156182679271119 -0.40222046558153112805 -0.43501850420732890434 2.859257027606288748 -0.30763047529702747251 -0.45562140923001270831 -1.9566093018828205619 -2.6480176425821091435 -1.1873057493454017841 2.1735510194256999483 -2.5397121417159032042 -2.1367102995545370625 -0.16545478147126235768 0.27458458699324006513 1.3358917025303380655 0.41371868967678443463 0.40155601244895267055 -2.6114333646806349165 1.979102311188881469 1.0988015911002824154 0.77152815223013038182 -2.3613146013205943419 0.5576570646832249567 3.2998975099023533097 3.8228349076608596491 6.7756220837341025742 -3.761604689719940442 4.0476658285220059597 6.2098051521583750301 2.4394530958572060442 0.32978108805505357282 3.8574832492502242332 -0.4803789629918267523 -0.59160696863636286214 0.057681053304788856839 1.4951733118494825447 0.88405450482781300359 0.44866290759514287911 -1.2297798331820259943 -1.9104048125937997948 -1.1462816538980338255 5.1192438421125840975 0.25565133218932495351 1.3798557830310276273 0.26970401830690143852 3.5959049965455429643 -1.2845432308853568237 -1.072605595270768486 -5.5861393628523217103 0.37662479277897886742 0.42961265454046693169 -1.1696728263079010368 0.31045703932511248269 -1.5293992506918734353 1.8135139534955673213 4.4968002017274910642 -5.0405365449316743565;-15.48081202447379745 -3.8007184196633181372 1.8507220741825045618 -0.74628162996591984601 -3.2819963301161703129 6.2696993825516385002 0.70123440002536319149 1.8697469728330673444 -6.6234039952070160595 0.10918272603091330741 3.3521705061164523975 -7.4657115225139305537 9.4320252135654456538 -0.28373850640812908752 0.017609119848048249146 -0.20131796891377420899 0.08771616722441981373 -0.10368779419029330868 -0.96268098355673725752 6.1252167145148472827 -1.2371575486559391877 1.663965220068255535 3.5027861379499558581 -0.056044959506579998532 0.091503104584703939817 15.249216137331922383 -0.50096486359277025979 4.6770404077155314226 0.73127454977877381914 -0.69362832269101126759 -0.83537156694972680704 -2.0654621699963890968 -1.5436994182554175659 1.5266416736655925579 0.04736653444013139147 -0.40889854723337709652 2.3059491612467550858 -0.46751379675011622838 -0.11027196486077803228 0.074637747290237574371 -0.20586937690353135366 -0.0025004606134208864909 6.795904777579232281 -4.8956906936704598365 -0.63893791817130574096 -0.19002623339751245624 0.87578311710441758553 -0.39209958838552289029 0.028784478041621104627 -0.57345238950296428815 -0.69336019641734114582 -0.82703932156466364312 0.92948746256079950445 -0.076015851054116623242 0.68626049111761744381 0.68145249507374494602 2.4817490054617321604 2.5202650843963363414 -1.956045464689245561 -0.0026768630522480130196 -1.6537149372343975529 1.7694522826460645781 14.235145537679878558 4.7806881984954250342 4.4586035062100419779 -8.4304026298085670277 -1.9049440594772755198 0.3561151322236723038 1.7579728364013114117 -1.502048429512322425 5.6718287613277489356 0.40248845196420923731 -0.23369716296997541938 5.4444751677069742613 -0.058238386351812276853 0.092308083572257476623 -4.1125890181787845279 16.930900562148043065 -0.54581543763160600413 -4.2110918699821446864 7.1845048965640865291 1.646521488802575206 20.334999529309133237 30.4942413378129622 4.3534037305554900144 1.0475222557229302289 11.007542782791308156 2.6787844430357852232 3.5726399739807659373 -0.0019526562489165441572 -1.0564656421592411029 1.5362869433102317451 0.50085902454232555936 -0.6852247217279348046 5.8502744898261065387 6.703421441407356518 2.1717722280408646718 1.4460444862325658733 -2.2355522041686555212 -16.261187439120927678 10.195632982454943871 2.0730520544077672973 -7.5327362562910202826 4.9473424708516855475 1.4312749522926497825 -0.87659436195186124507 0.67466647132520984886 -0.88888901663159824995 -2.364067353584873743 3.6129478814362405714 -0.16937901444684816399 1.220825356604727352 -3.872133564325596744 -3.0422566015697167785 -0.8900520874354984624 0.10919789886599483297;0.48128205449383421044 -0.59349339661076871977 -0.1325531346628624485 -3.0458652345704155806 0.73293677438275384173 -0.35149316919748840871 -6.5073922945589117717 -1.6133597084472324212 -0.86811771121323888512 0.51423575112704389412 -2.6146590388380825942 -1.5067706166102174947 0.24197258857181272451 0.59461447985452731135 -0.58146725305921465043 0.56098635788366935095 -0.25850245463554333281 0.20351257413052006862 -3.5808723243123066204 -0.40680583029745059909 0.58384366010783750323 6.8334737595514152275 -5.9284072221949930537 -3.847165669107007524 -1.2775379174077943212 -1.1829694391185348046 0.36788931451780737536 0.0020704220664289271769 -0.22031848232428805079 0.082755692329383567785 -2.288858113566380581 -0.71367733409000388978 -0.8369913681341979439 -0.057536491832951043579 0.47716531343767487616 0.45305955564661237744 -0.51652826331056189701 -3.3228733804822829789 3.1003669825959105921 1.512917275214187951 1.9351873106887502729 -0.70035869925389682145 7.870095071084600491 -5.3346085192147496556 -0.34373411678702875394 0.79609934856027964045 -0.84155351796007860088 -0.29006658029147269762 0.27823551479177355272 -0.5758643771324252203 -1.0221631450327173241 -0.37420048755491575054 0.76125214220978976165 -1.2255424435932991134 -0.75383242388652493826 -0.9577649774349924483 -4.6800391560684424519 -4.7358040529938838503 -0.0021429066816705880094 -0.32661695665481238482 0.052482398266234658868 0.021872595285718055003 -0.017921237581516868964 -0.17672875836130841343 -0.24695553038550155378 0.79791188826350145646 0.12518406141245905228 0.36051184158465249263 -0.34277116135458229884 0.46250790108570122294 1.946782655522471428 0.33802630921034093614 -0.24864218549830624516 -1.7319592465653868008 -0.039753296782799471543 0.40250824368265875064 1.4846280096051192032 -0.066010981266085511088 -1.4600230598712702346 -1.3859543421395581486 -3.0256112671632311439 1.5258133391133987811 -1.2859221767436042061 -1.4350219535131949478 3.560406812921555364 0.9336883564987871198 2.7110663538413879436 2.2136901113886757742 0.81118726486599934677 0.6152401581906095096 -2.4615420006117254559 0.75673721307516161882 0.019567838866788027363 -0.45838382620965562042 -0.74154948170636036942 -2.0822733183562198711 0.28984761648716739213 -1.4832082533509567401 -1.2098609523343890615 1.6876461208071125153 -5.7741012012879417981 -1.2330756427974023381 -0.75826784990033446743 0.49605145385619298093 -0.70718866881024167181 -0.44971000863294846583 1.8103107094245352027 -0.49156086971611762104 -0.3850293040687522983 -1.749098424680075814 1.9060432518442746996 -0.30552261107069128565 -0.14789647003042136197 -1.4267717227641727451 1.0718393802281256377 1.7693567009284867364;-3.7371463477318287438 0.32210050668773970717 1.4201210786691769172 2.3472844229530447357 0.32338499874478099372 -2.1981267437407736587 -1.4713736160885788617 1.0017997414467996187 -0.75702782058154172162 -0.036497416137137889125 -0.70399301237018208077 -1.5202484782628784554 0.39371120304253359734 1.2881609460434320091 -1.4945196213579163835 0.92971328382587126171 -1.1095109555040272298 0.79711956603686684453 -0.286069472982233175 -0.92136747863057744112 0.44788082258725470108 4.9920081915050484866 -7.3711832281109650467 0.21419469502651986015 0.19257029456543275914 -0.82110311457562756843 1.6746486193522311936 2.2653162434414371162 -3.1465492039547027225 0.79742796720206021721 -1.1834311854864736357 -0.26604655341383398603 -1.0359975158205838586 0.89490092622168015968 -0.24317109746772858081 1.0599608035381062887 -0.22599691804030280773 -2.0493143908144406673 -0.52663283566658503076 10.276039667440217684 0.30163631006502167331 -0.64393502365080068639 -14.570730127007434973 -5.1114483162602288857 1.0709600775224954461 0.13865314308399329102 -0.90989010344259391161 0.083739330443803092208 1.5895535141659533629 0.94360032858774700593 -0.41820408488757154775 -0.022160443287750707098 0.2544687989466127287 1.3139386042161032009 5.8960174073958011576 -0.36505419514084402888 1.8932472786908312035 1.6721291936563291713 1.6761025522037815705 2.4099404106755972776 -1.6045302611674205906 -2.1832224239387185705 1.9244246247323462118 -0.24947386492955062054 2.294971946771828808 1.2438382796583487 0.69813300391354649044 -0.75150639368988148004 1.9575028618723715468 0.67008044267339816891 1.954954165627719842 1.3475969324972960628 -0.010345023625856063221 -1.3685767041982890291 0.0056271299075607988938 0.85863558781414972554 2.9821065052151807251 1.0346234555756617102 -1.7814287414029947865 -4.8211326663700990736 0.14445151742099074377 -2.2743172056341980358 -0.87575879946326951053 0.2828243120166443747 -0.48052289761175415173 -1.5701574103186937137 4.0272454821267196223 0.033895383460013375765 0.14299301547180140459 0.90102688929700480713 -0.46277453334530327389 0.93346897923312799339 -1.1069825874454934933 1.5822345921017364478 -1.4011009814054136147 0.37682679619476444621 -1.6017575667694485819 1.0484960371905367449 1.9319386142964085629 -0.26503794453856227564 -3.0041161758378707169 -2.4788124368185169288 0.9892567063257429183 1.9766961468426564874 -0.91400300110577381574 -1.5082328075100652764 -2.216478899099605826 -0.72755255230853210779 -0.79879687367770835227 2.8253650677059121143 0.67462651666315831545 0.22016208126279296353 5.118716283404457279 0.203349368805342684 -0.26347569421231620268 -3.8477801392748376408;-0.66886777225510507527 -0.56862568851246642065 0.50674988597306602767 -0.15244977114107438609 -3.0844942786200388873 -2.2786851945534900565 0.83478952681231854971 1.5092942607284038914 -2.3929369537449125538 -2.9747669513425494259 -0.60700860981604942701 -2.0213656587041999302 -8.8593031115308189527 3.946769444784955283 2.8008081621834191033 4.4693809873935821386 -4.7013960302852098039 4.3283833716127073643 9.6244600331663594517 1.3375643530203984444 -0.9736374041574888949 7.4014973562105232929 -3.9653585342499058086 11.690059175476347875 -5.8063168580529049834 -10.515545046728329126 -1.508814736064130857 0.131696949980818101 0.32646354664635884868 -2.5390873304097789642 -9.8843406082714846406 -1.0477228003940954881 -0.35521498454580108239 1.9068483687157344875 -2.4839167486771711602 -0.04999984748248142985 0.19170680428502037684 1.1433457414345111758 -0.27203145297839581573 2.6129301738975958536 2.0606738822595800364 -0.85072321950429252713 -0.033710633163312353489 0.30333727770441387683 -0.73772953191795476169 -1.6196637145404921831 -1.1824803947419433303 -0.95796752195031775745 -0.32709674196577642746 3.8923980765379084801 2.6891174219293771941 4.3987481011506908146 -4.1242627568661704984 1.2973470316350523834 -1.0769180617619455997 -0.50071724661418604008 20.535379432128955557 20.547932822558010457 0.45882932928740999268 0.62677681528176953929 -0.52459718806836685978 1.1836320371664037499 2.1090875193645670649 -0.014277562624320838669 -2.3443901375721862834 -2.783901855607739062 0.066680262042905030784 -2.7780944185312685946 5.0488162257190536408 0.31355287639801154853 3.871701824537699288 -1.7802449050759379112 3.2586272644122158404 -2.242831421379531065 -2.5682114411117979991 4.5232202398240106689 0.33866851852361234965 -1.2658372430258402197 0.80661258385300937945 -4.9162483423913441172 5.031902120051757521 -1.351993804226548912 0.47795018860515703363 -3.541101724864663236 2.0657283004791797687 -1.970211279554455519 2.751433654868890244 -0.099077894326810661552 3.4909182068232063045 4.3123223948543998318 0.8329328060245553278 4.263333860800170072 -3.5991389765671746304 3.3779762918305036301 0.11396850669056195204 0.12068384930103205621 -0.34993038511834717585 -0.52519282124449473415 -3.2453476482311098827 0.15983113995462147616 1.7312624268228449242 -0.88913524765606188893 0.22601563412405872855 -0.89041972986052386752 -0.046327149995670155458 0.59759172285597517149 -0.081930663769273076591 1.4691064688097434932 1.5475541031428305949 2.2665061938863062529 -1.082528393529248234 -0.18539972275023247628 1.0508873847354556208 0.25678843612568763577 -3.4967513422600262629 -3.909053339394835902;1.2479483083722029413 -2.2828056541285959291 -0.36460411858831676124 0.20034503520577323643 0.0090081233042585487358 -2.0465317400999323283 -1.8442982790241781998 -0.080460764061879172515 0.93161072755572948978 -0.17435310563087119684 0.12473976529654248746 0.47426279333221987855 0.25389657642774210444 0.11878126887094150876 0.42952042771015519484 -0.28563210121534060582 -0.1497526560474861379 0.11936892867699221144 1.5164490711776721366 -0.16974598147234190582 -1.0618445175045443385 1.4780979307380464061 -0.37966427456798607087 1.9743319003519363974 -0.89842013019702604559 -0.99314283784473400551 -0.4247734351019992749 0.06544783462263892293 0.57521036517217527528 -0.46236590031202179363 -0.76077755002809122065 1.3114225414163811489 -1.0486909885911721574 -0.37817311507913564661 -0.84470245232335638974 0.81541132937672122782 0.48645165868935708042 -0.12123219137177689009 0.24686124254671090728 0.2078496916828306007 -1.4004978785558643839 -0.039955645514019005882 2.6335959393643304516 0.24430478652432113806 -1.5777696034439345762 0.042084417170463905844 -1.6115109313447784078 -0.80181882308083662902 -0.60461955133599065704 -0.21974036752199208045 0.064422522279563132486 0.15424586072315588092 -0.15765439780195816821 -0.18729012229524019673 4.8889775033310067798 -3.5100158043414304565 0.59722560727457685292 0.65343922712368862626 -0.5428660479126662386 -1.230054392977627975 -0.072986544356021365587 0.49214210510525019382 1.1444520837467224705 0.66952351649947317025 -0.80636768410746895164 -1.3348964680348425205 1.5475968126112693568 -0.1716376036328319532 -1.8896672673430077172 1.7331482052785072145 0.55243947246911562221 0.26841047375038784573 -0.24548023659391646212 -0.38574670497819812942 0.28050994140910123775 0.16156107587551676863 -0.53033759210469666456 0.3441786577440871242 0.69839432371159171353 2.0821179117220625088 3.3300333715175978178 -1.8833977536806807418 3.0682693098358120309 2.3912429427623886902 -3.0790900499273288204 0.96326999078539954358 1.7037301608698025568 -2.6253612544338627011 -2.406371699535548192 0.078369761092842493699 -2.1890441694047062526 0.32524340890851449748 -0.80013889195448639757 0.044319487998783581306 0.49028895491329937961 -1.0882185404861015598 0.55257467272947757841 -1.5913296396283138634 -2.1377134019780656971 -0.69801002152680613477 -5.3705624836752150486 2.397601686122605269 -0.71763385296739756747 1.1730700154106683541 -1.5007555944866663999 0.06615512771215309451 -0.24597226275495009951 -1.0391382837618452495 -0.10530928015664982322 -1.1756856861490754262 -0.29549342959422186805 0.76030383576819504654 2.8382517341596060767 -1.7639618877285152543 -0.56325283360342803807 -1.7441817685148806039;1.4228092515441135291 4.3311821715566063418 -0.54116845972291982569 1.0581285659922738951 -0.4463371308770707202 -0.38461829752470505506 -4.2697033258516849941 -2.6669939510335067823 0.0044751337993014783656 0.11010451618468278245 -0.020432460023047216424 0.36550681859940753471 1.0443650783213489497 -0.48963055534235777611 0.18007266667951873917 -0.56796150570883241482 0.25421641376497444709 -0.34156268048833215989 0.40200264230958171474 -1.8078449663500804068 0.13947282969814842057 0.72705074799547564357 0.37309452219872957235 -0.4379373764798748514 -0.53657433425568545893 -0.4095782684757213743 0.24986331821928403629 0.45329702334439547773 -2.2542836893219626582 0.54129927728439763968 -3.0486973214065766768 -0.77277001246808307844 0.19867204453761469485 -0.15524502519469068895 -0.9280123494976577625 0.56850399604720835978 -1.7243498187422641177 -21.27478314020714123 9.6296387547186093059 -0.14232085912556491358 0.19705456841793986267 0.014529493551127314888 29.782140955697773421 -3.1199886357995936237 -0.27119227672340551205 0.0049043154536037442126 0.33449951002037164871 -0.42168549561922463731 0.41594260796885340614 -0.02394230434863932333 0.19359828608753298917 0.25009124771464963377 -0.33508609217396895241 0.20462852506767539862 -7.0318555967028446574 -4.0172863994850516178 -0.48415819688432232271 -0.38888191613010714143 -0.3529788786507597198 -6.3576977754016024136 0.18867988012234951367 3.6467075593084725682 6.8628005936203866355 0.63280533925574178333 2.2986551690275471849 2.8336960401933919407 0.92144726946656196898 0.34863972673747145592 1.0152352657514920331 0.55764904868963072193 1.9786666936648877879 0.26718278062004097162 -0.035393588076476800719 -0.91724738683455908639 0.3410844830330756472 -0.31975246277668795125 3.3424038955388617467 -0.91158531134072551261 -1.203274407256237577 -0.01392711271367172432 -1.8845347905598539562 -2.5889084328903702037 1.7328202308483566796 1.9283299723870113151 -0.61950771634270673793 0.46207840188375681745 1.1840525110955231192 -0.74358331787453435524 2.702050171291176639 -0.40347463293842533716 0.82734222937020007738 -0.44037818634561698428 0.24805766672255941119 -0.42443954572323644436 -0.28469616125832031273 3.6353781431972107541 0.15595553680637913585 -2.1851565792490559303 -3.0258170352606530429 0.18793469607060464543 -2.2039388995206783406 -0.55556608689865871753 1.6239631669724978735 -0.113810191304229813 -0.24490977891523668664 1.4429891956890243954 -0.93469355764324679736 1.038152974321915778 2.6381334998689998095 0.27286592232356454701 -0.21087724510664471178 -0.5789266513516851953 -1.1883187340677303645 -0.49663473609177505308 -1.3672160071152086314 1.3051887508140413985;-0.040807032681696914223 -0.41511590893088229359 0.051147583406626916103 -0.50998246924725776363 0.26442763371002292461 -0.096253789349227694694 -0.090355092023456082262 0.31928399840452442726 -0.2070071352113194707 -0.034875378503776484351 0.019843020659992546134 -0.097628368928995970522 0.32573346584041151797 0.30120883386343744181 -0.0774787558803228249 0.2487367427178451551 -0.15818026948113911301 0.15841252296203103822 -0.39734419431792167288 0.079828344391732419805 0.017509753391809452366 -0.12088125999137225297 0.028310088610496473432 -0.36144434565964050909 -0.55971479123563683267 0.44752800956004845645 -0.12392076406965767121 0.034548022588545258815 0.23954576425415111118 -0.26746592627407084208 0.086769995081037512574 -0.018996820544820866572 0.34728297761076232231 -0.12665124280300640858 0.065390272632295839972 0.018255056948379987797 -0.073445581801378279074 -0.88969656372883476614 -0.24508383840277517263 -0.5860367566216596602 0.39861665420710662433 -0.27989223193662032818 -0.036884152207716257299 0.054732938480934252568 -0.44517948906227150507 -0.12388864343793393186 0.16826209808942885204 -0.3854828636734709546 0.29595477512931500641 0.088688281777537070205 0.40076551485129457975 0.14920810210755292013 0.064618858807514154008 0.14178320820922163392 -0.26273522511507302335 -0.14335494700682682723 -0.29292734252432506281 -0.54766455923422330265 -0.61180406664544439987 -0.26827806433863116142 0.26316842328259532069 -0.44061799135637602642 0.36107573919076030311 0.43755415064487068744 0.099590669335099579751 0.02390292894203793414 0.040254854670727861776 -0.11556703815778150701 0.25638262198148836779 -0.3446421768219065096 0.092072411338987913965 -0.22510318328672604404 -0.021831700992159058794 -0.28611618654393544681 -0.25669749022534665839 0.11494458261874515581 -0.01214285291387126077 -0.010874858381603930146 0.23901234513455002495 -0.082678274957734027018 0.4506103337648584839 -0.10371651614144417053 -0.40715803714772885735 0.47278817609059359262 -0.080625639965780371288 -0.27379157830795514128 0.13302667376309051939 -0.16355158369460984225 0.34366530834422248653 0.26794538213846558206 0.21317935038710136841 0.28902669339899478285 -0.19581777204039876872 -0.035675639901613098726 -0.106442883912517397 -0.12188508421715602004 -0.1804169628726736696 -0.088523421508719613016 0.39992619497105735826 0.39704094732321049133 -0.22180729051828321219 0.078624570550172398486 0.14152400483231011852 0.27461910161851743606 -0.13140070281937479835 -0.1347200081539880745 0.091523807442237897769 0.013204967544763399068 0.15318597036307221582 0.22358603863225584574 -0.24948020511884361206 -0.16574631096000380648 0.1106395186289140381 0.063695657405975492082 0.23223545086665983717 0.045891914630799168773;0.29935137799639022216 1.1512693580557198381 0.00031900754402136577426 0.87220487800163160053 0.85207473550170265142 0.46557930959679988403 0.53636955754555593057 -4.4594541629233219737 -0.63201849400944243307 -0.19823055972725414642 0.19557788800759970393 -0.32797098745179448231 0.41120393783378539343 0.19433948381961788088 0.32051180340408264025 0.38611040505262828049 -0.3479579731667047926 0.35998575641841973338 0.18750025894503183355 -1.4396070052201139777 0.40135850207334183848 -0.29789251130422550462 0.29260501892436918681 -0.031659560553441379316 -0.1496116421617628145 -0.24590276492732901503 -0.12288697336341845856 -0.30762043457911547595 -0.06049765421223160522 0.13103522412490403726 -0.18329657717950945117 0.41809335668021824217 -0.60571628725263315651 0.18204207175073303104 0.024668145055054761794 -0.40419176175355403524 -0.065310410009523103825 0.22325731984997454482 -1.0869372687740352923 -0.21055790750402680889 0.094845741998396432271 0.64391474881586940882 2.0996073503289247597 -0.19536980151130373118 0.0082482467623436889204 -0.58570174210568048956 0.0016248876349968383037 -0.37318876031560743733 0.036472423304540008138 0.53923444283427657275 0.29256903609614576256 0.5362295065227895563 -0.49466786176655097584 0.5909561180948313952 -0.0019206380967820846362 0.45050541521924869492 0.4347244653603084541 0.19319891680236719878 -1.4453332167566184108 0.59540291468478889758 1.0731029875639219728 -0.90007128933562818851 2.6161809340201536145 -0.79703884553791803924 0.28957997230370458031 -3.1320278489875916783 -0.26583196342574522131 -0.14585552040709556798 0.62213991517978961543 -0.48670235814909662553 0.11168455454898142121 -0.54788295114509122374 0.34201199605650983715 -0.88134642221127623696 -0.48482313721735847967 0.27934248141797562992 1.4524547333958155448 1.0452212892142771494 -0.50052463020847859365 1.0834714172833592727 0.29729891221311788296 1.1118713887404414464 -0.11646835677656305896 -0.95459692648263883008 -0.3794321165116211203 -0.27133418940700626543 0.42855815396123092542 -0.40693848682526195804 0.42374922791333041738 0.20031754646197649783 -0.25244745838784210523 0.37377870939362523028 -0.51600061615922665492 0.18155494679510797429 -1.1407307425744424023 1.0183951754062714468 -1.7985960980410173882 0.78659620106897154557 6.2377780959325521692 0.093389929900920543027 0.57909458730327378895 -4.0546703769540330953 0.097561761694194532035 0.21899891928001269381 -0.18574122927246172754 0.18561162323310653743 -0.13265003377127848605 0.26703713977381055011 0.37573024036511715185 -0.026517637948923200586 -0.080802962347867129944 -0.52240688908138643853 -1.5929061798372998737 -1.0949423242855662597 0.34488800823860293887 0.32606951868838041086;-2.501466078694256634 -0.054855380672110598539 -0.80698161163877601965 3.1082410711407648662 0.417834593280106803 1.8510704690694961272 -1.1550487370064130843 -0.86602728267420125974 -1.0151754421186449662 0.77676970354435770361 -2.4638913448152774954 -1.1297121542938455274 -4.0342270420633159489 0.12941128572235163774 -1.776818833622595406 -0.25692240863732995759 -0.16675294444120036808 -0.5235566930678693387 -1.8439689481166232632 -0.70511535521531043536 0.093361923647823599759 2.5480647255512698379 -2.7165849380000923752 -0.69249997477776126242 -3.0254338377189426978 -2.4965723983720353729 1.1976413511658121624 -0.2780512932891843203 4.3712471176968952236 0.137232923634943077 -1.8350633691932942693 -1.8295354722208718723 -0.95828341034397712672 1.3343417206097085703 -0.51961480602038156995 1.1873486892766409451 0.027250595213570510955 -3.8149909173483704805 0.71744395491394097331 -1.8176240955286051548 -1.5066586467798142035 0.067898662443588789217 5.4428747364621212768 8.1979426015942902239 -0.56537788348882878076 -0.67121332568896896476 -0.64777617099482187601 -0.38409509453676454749 -0.32103653305458013101 -1.3740243259232629569 -0.94464883062774962497 -0.2944329296724406686 0.28423554418052032755 0.73547085541887824434 -3.3561855677200629344 2.7865336559150146734 1.4001840723880638606 1.4080067248420555792 -1.6195892989561613273 -1.6914904849788898744 0.55247418044520135716 0.070710796478781062779 -0.6118118529979545972 1.2239566303774687128 1.6324140046344564059 -0.27186910216880100233 -0.16618983296343367573 -0.16197810009848404023 4.1406229424310314613 0.029243471611069701832 0.84110411834586418234 0.33231702957251424424 -0.55589962587435670649 0.076462087771041131745 -0.035567338965058578615 -0.17727652834493687339 -0.18353250625577774424 0.5547191229626088349 0.24625989233959377778 -0.71788864804044227874 -0.038808220062634207759 0.13830837583894187159 0.14592816401398459036 -2.0187392325947857152 -1.1178063287137509629 -0.64176451259935207716 3.0900341660861623261 -0.55526001272301850342 -4.4349814924782098302 -0.34834165795764648887 2.4736314789113329482 -0.24149922563405573639 -0.051845754698935722637 0.60282581495089160306 -0.3613186144731919125 -0.0014278108042944104294 -0.24523923694545637919 -0.44519430309938479162 -0.043107116781878243583 0.68329944696460498399 0.45463178765412259885 0.48155019423653788735 1.4037119119687488933 -0.17857311833330846707 2.3908616653216627768 1.1821083596604833321 -0.97307097063779535162 1.1927584043072094744 1.6490673640540405298 -0.60892815090287555346 0.092092497784871968358 -0.59937403328681737591 -4.3554824351668930404 3.8364495378536820347 3.4121161572973766063 -3.1817199544967338376;1.1495699308148112916 -6.8268489075018141676 -4.1091590219564215758 1.375030535920777286 -2.5271122971719530703 0.80202469057614356185 0.68795214905376522729 -1.894728553988556552 -0.41369712327056323842 -0.48180432409670037597 0.66946469158321919579 -0.5925409909297163491 2.5043400450441328786 0.47329698227538191668 0.59713017064282447599 0.57454475759948875346 -0.57095361746523509705 0.49120842487869048609 -1.16889601661276199 0.37660557640776126664 0.29129300334420626939 -0.13058990423089186783 -0.025508159569550662576 -2.1094314135891654161 1.1389203603909254792 -0.37166218780353765805 0.0039104907718510058257 -0.20906809682566446229 -1.01791875410138144 0.58382685086446850509 0.16608950685924508961 0.14124626219529645699 0.36685019581399835875 0.077782607704407660809 -0.26680330999358869981 0.3197979916042985038 -0.10935497874760681525 0.056736918361050860116 -2.2721204512545249976 3.0882372687404409106 -0.3490905862291614481 -0.016135723223653114511 3.9870737115419268015 -0.064789497353475861141 0.3383916721980010367 0.4999190092543251418 0.43403714988175351452 0.54938312171437564402 1.1102158032121858255 0.1480830143898110296 -0.52349016512041190996 0.010313722083196981416 -0.14867027014288225484 -0.1212084706385690297 -3.2256329702985251373 -3.083869159310118846 1.6747430867642687513 1.8427866246619866164 -3.436180546606984354 -0.82396066422946312446 0.32839396310566504322 3.0535125364745878684 -1.082593680344580811 1.4597974963049968888 2.6591993709047612171 -3.19741530261301099 -0.42650560042631496804 -0.48926060091361311954 0.54205583249057343043 -0.72334973849882877595 0.29899395244633347746 -0.36114764571998980713 0.62670937661725589773 -0.38126698567206807056 -0.5961018611588397853 0.66950431844897639877 -1.2190078012969938204 -4.9047338068882870843 0.5853569573305472673 0.050418488563945491887 0.52428545816121729928 1.0052520122029313665 0.73617383151726523138 0.10527263204212558567 -0.46136963449445744789 -0.6928643579958672083 0.46035807730233346824 -0.67770724580817909288 0.33717725372939832962 0.60438597720192654972 0.49748413496322879679 0.30450034949627408087 -0.32734852338214581735 0.33894839506122453887 1.6602544934447889258 -3.8269912446428140385 3.3592255453382575681 -0.46505161485739465732 -4.6768132844618728328 1.1096385737091858381 0.88827577482242114915 -2.543845243943104073 -2.5478846890702504524 2.6602804432392077594 -2.3058330723246727167 -1.4584115214694299834 -2.1785001322559036652 0.079082141874021530392 -0.20273258173920813419 -0.70087730062374287154 -0.68383912672447888514 -0.2840919004706048967 -1.9017139567110643572 -1.3045315182562207124 0.68772206036423089159 0.61511738782411440329;7.2451093695194002109 0.98150588523852300149 -1.6482729535182851777 -0.15049815298094035287 -4.6208418041607162152 0.42184900198869590415 1.3501505863402045726 0.25915721939951641417 0.049891487866249514815 -1.5446027881941877258 -2.4747390713658239392 0.25113649967049139766 -1.8449621227009198599 1.434042802408301398 1.2141607069648088224 1.5490578856512600137 -1.6210912365849083905 1.6331219198195192632 -3.6206897889577343008 -0.41601445272843012857 -1.9561397362949570766 6.900221756367228565 -5.8309978433871050285 -4.343240153065763387 1.7316093170080364416 -0.91638267815755769519 1.1654186197163942662 -0.063649765577097838776 0.30495344940769741893 1.4432701167983121859 -0.023574368523144050708 0.93291560494195191477 0.29503165779666196133 0.78347689710026513499 -0.63255587996723139366 1.5536548244335928182 0.3547577947686296751 5.6206985570257126383 -2.1372348859659773268 -1.027808424435942225 1.2694489027898037126 1.49356001527727833 12.466772244450824658 -4.6767205014971304777 -0.56348684010494298757 0.16183450735619336891 -0.17619417420900346238 -0.20563451771848653693 -0.4634742574330094067 -0.56684867817617612396 -0.3171592703212509079 -0.4161146530444398417 0.76716954810959114841 0.085768478125374109089 0.018346955332089492918 -1.2891266603733375629 -1.076728303809961762 -0.80720565484618145291 -1.3403016502587739023 -0.78059334000068458792 1.6034746117023292999 3.1241180164949491349 -2.4000404052838661961 -0.03176123972718847277 -1.220331627680728559 1.1952522848121207577 -1.7084521650824193717 -1.752172338057663481 3.4253808438759163479 -1.9939299576392204294 6.9425064757406449445 -0.65835705682008660578 1.3319422972965642149 -1.6522348845757530711 -0.91618571479679322689 1.4320995282789459324 -0.65345060706767577052 1.4809980462031504533 0.085432627535438093735 7.8462180172575255455 -4.1211800543315755263 -1.9049557378654025097 -3.1327086835485462579 -2.4381609887374517953 0.9828437365887741084 -1.1162817141696659284 0.34919442914298631786 0.43959897462766078791 0.18941839507089719419 1.7011062021121365895 1.2465693001837052645 1.4561470591122982476 -1.5001885000204859821 1.6189217175727759201 1.4247622269217026236 0.94732826292216443242 -0.2236531291980948799 -1.609290609088767976 -3.2972977598783872466 -0.48477386925259224881 -1.2440002322294734238 6.7163751019530311126 -0.90041384937414203904 2.632506251180929624 -0.64688381024306740308 1.2242879111308369033 3.0441216264266715008 0.35714145893098742102 1.0548425641199308256 -1.9634965196686682276 -0.3797200636388953221 -0.45357396222705165245 -0.6933430974364108712 -2.9658340727976928441 -1.2889058027082389568 -1.2191742594820782486;-1.5628536407774600292 -0.40510372169603109382 -0.92919683075276415796 3.5010892995508067216 -0.77244479495321261009 0.14922448616423303336 -0.81075888773652726726 0.029231910928678841999 1.052851619791674409 -1.7100974942745679197 -3.5432678669173442998 1.8539661197648931168 -0.87312841224281223518 0.24778506771639433048 2.1669832118834109203 0.74717277226637879295 -0.73167664680061805793 0.47873125317913073351 1.4319233482008293379 -0.59225893100828930216 0.10949188826890768333 1.8062155121204879205 0.025392303642404107089 -2.1226173753774362218 -1.8555438411406599553 -1.744064850471549688 0.51957827307312276499 -0.23032412462792045682 4.0086961430762331204 1.6324365250451633447 2.2424469944828371304 -2.0395273036124121901 -0.81561576810776093005 1.5678172702054262722 -0.24024821081595737482 1.4020248275059186138 -0.00010584748742529029308 -0.75668699755671187113 0.4686615324742513522 -1.785766972281383369 1.1241745858320648654 0.032462879863440978478 -0.40114542002395847664 -9.400167532426520367 -0.64585759519616736668 0.52222853105929012418 0.55577035892108195281 -0.56327839994425676906 -1.5836107205487977012 -0.067355292753794968053 -0.23678825535631647936 -0.48883803503226386233 0.87239042979559378033 -0.78195746500071183771 2.2831617041861429485 0.32897489945100671926 1.1793343246019041271 1.0666385768813346768 -1.5883069831157081708 -1.4203011350822531966 0.50222374581946915839 0.3255903075354177334 -2.5073225672992385249 1.2437608237381130305 1.0851966066155016577 -1.0727577397754095578 -1.3946108260630654119 -0.72126002019775103946 -0.8130107448813330695 -0.76676130234268191632 -0.5791149836562904385 -1.3261455511540130026 1.082814529682770921 0.6447872376563582586 -0.96099499550967137917 0.73170259387661862327 -0.76706336304950117899 0.27827150164442615576 0.51243808352614994561 0.27727343127219372665 1.4168549003293837707 0.40920873137810187536 1.1063615406165772104 -0.24381947055910399569 2.3506885511138757572 -2.5655826882174661563 1.0138920076041746388 0.88005377361148062754 1.0637769672608845539 0.6352564560797565596 1.2373214179092382192 0.41424617948983821769 -0.72582392069578816063 2.8785320592712553278 -0.14283372807973310215 -0.20739258306631308537 -0.075948930884308069045 -0.99352414477354766831 -0.55461148157400219638 0.4266294605901876924 -0.26918515283549232509 1.6683803744028473659 -0.053078132797150290312 1.2694685192573500476 3.2293980101397909976 0.71216316028380022285 -1.4618938497392381937 0.24900141003196712974 2.4564863725352612533 -2.9585206622588549052 0.55384337959746632318 -0.53202948361330737459 -0.70275382407366637771 0.58307567540386184834 -4.481164435708951288 4.1781801612669049462;17.283572803409271046 -5.6005985054968192571 0.26986890401701596476 -1.0556995619700975109 0.020013714143244369648 -0.38646115735849895234 -4.4483848348866024125 2.986690504051727757 5.6056927628985340206 1.5008082467651073788 -0.44241591077552877564 5.9012527354974846361 -6.3010387575284241279 -2.1765548756516808204 -1.3547934949111684055 -2.040700524757831591 2.2386603566449019276 -2.0012614473384959801 -1.4093393803777725104 0.44278639536609504246 0.15334966998732016408 -5.8373159773040024234 5.9322733583815656644 -2.6388890641766162837 7.0541220844984682259 -9.2424878490897270922 0.79996147420432039965 -0.98301738835638929892 4.2223771937676799482 1.3208515179141711027 3.4956414879878683344 -0.0047885089636337599406 0.76645281230819528595 -1.2912387226394017592 1.0375661103431585985 -0.37265743548479862701 -0.91878584475700364465 11.704986849511502811 -0.93404734936463285067 -5.9430091254479586738 -2.5548181560287610559 1.875328972424220586 -37.729885028989912144 15.792670099878096224 -0.20113419886980732354 1.3619031442782205676 0.23020730078685108788 0.8116503573318798459 -0.77201082567440248994 -1.6648353537524942514 -0.038361462880850301371 -1.4295129344409163163 0.9861121118445350664 -1.5806209047540653589 13.073428273595849802 11.407541123035150221 -5.366740875761234264 -5.3705991240501118611 1.1448635847647750108 -4.7821412515755215011 0.23855574120011927008 -0.79147486895101160087 2.53813795075112969 -1.561812180339853251 -3.0682160375644662587 -0.98818987464061858184 1.6445568167753674693 1.8397485883056625688 0.97613339687675693135 0.17396431327415307067 3.3394470846603585557 1.8210333405542440399 -1.7179385456512916708 6.2009704024326310901 2.614181123823296371 -2.0989018937618806326 1.1095457148986072049 0.013836528394476736714 -0.74864009187418067981 4.5627203578576471799 5.5114323206447046744 -0.28375240042328736534 -23.842493561118551781 -21.772435606899069427 -3.9583113698393770363 0.69805031861554323047 -18.550102612751345532 -2.5553221790103823885 -11.861433626236022931 -2.487306198051636219 0.032596381593478114536 -2.7259347388894621389 2.0768099945912292803 -1.6389803813677177313 0.6842574327103464471 -5.8210160714423118122 0.47558662034559423537 -1.8709776171259782096 -5.2399098662051883935 1.0858840200271215881 -1.8747930776471588565 2.0499984206311472335 2.4475520006936899442 -1.7942410334074900824 -4.4632620697397786813 -0.39015721093692046217 1.7210766978657030535 -0.0075992864664532755459 2.8295378191065161388 2.0776219631287329292 0.32626959370751740241 -1.646085048403817197 0.96801114617410866092 0.32349638789355122936 1.1857809706361970292 -0.88251052040656885467;0.2668799982086204059 -0.21723875175947071625 -0.071317578603896647493 -0.17817455753852948219 0.22703623020960175816 0.16226050583423273777 -0.063187695078945463334 0.27638414247093467946 -0.28441998772156756869 -0.048586507904471540331 0.0039133799772785599763 -0.27264122929498879611 -0.00028145645730566444314 0.22660690740197092508 0.1295733447699536911 0.11017557242172752729 -0.29656892581318444746 -0.015589763411729705422 -0.19619348250328180749 -0.29689999712174186541 -0.23437399810746786799 -0.025715842431033399118 0.35215136478797226527 -0.030438492412286379668 -0.24098421591102708872 0.13015068418579908704 -0.38333722682680682059 -0.25939489350736077977 0.31134830784318673347 -0.052395345667175227677 0.25785494512512319165 -0.011362578900860405284 -0.033855104816192228834 -0.01707162744074805158 -0.21187712755901386141 0.29211948709516893929 -0.11151555744225143119 0.0076263286403829384438 -0.13690734777254093268 -0.33341692514184340101 0.1693898572034474026 -0.059944113512397340093 -0.13519075579917219643 0.11368044807402329088 -0.37931785691663477689 -0.37780886032326349566 0.00057358984931387747321 0.0078320598927078093066 0.040718231953520464539 0.22600644200207289924 0.035547222197701081048 -0.084644045998143915832 0.054720967289738783879 0.3080386954919143716 -0.048308387942634284373 -0.28348557708771110475 -0.11168979291992162106 -0.020705444959737636518 -0.26331705610317635013 -0.35901762093500383388 0.49815157614274740983 -0.20610319344247257645 -0.014611405460425774816 0.020279692832523323054 -0.29005051747218807412 -0.064549271396576984872 -0.024394031376879531103 0.040265729371781917856 0.29783914194298705125 -0.0036176560208635807382 0.060874241351499693009 -0.31953047062779593723 0.10403650061999841769 -0.049932075628605916695 -0.27751175330647587236 -0.0093052635039149594887 -0.019739888334830372335 -0.14331368020597998192 0.078987943385558659348 -0.39815721269684745121 0.19343946007747442328 0.035026651583505048759 -0.1112140562866082566 0.25268715907003319598 -0.0029155262668678644938 -0.12979538403757415188 0.22339891894272295714 -0.19973982791202510301 0.2003824925680725566 0.032821044321347928041 -0.013299521808378723248 0.064087376463251036207 -0.11462344162006324333 0.27799945994348435052 0.27720448596568486588 -0.35769980768194692411 -0.090332059673949638423 0.023499628255014091277 -0.17553855717240562928 0.20703126641869573632 -0.034359900601128423592 -0.21198101792983958802 -0.0081923017458494801907 -0.094521486513669816798 -0.25889590582092025794 0.22685065163353634876 -0.21473661426061965707 0.15359062941325132834 0.19677839505667413245 -0.23708369100212386971 -0.054403170249752046128 -0.00043404254581336340797 0.023460170064245177562 0.2999542653384950075 -0.24498647575036130997 -0.011518320237536456077];

% Layer 2
b2 = [0.37210637643379468331;0.33165753232952377427;0.77739749871257135538;0.91103066248223552037;-0.97469819626172271576;0.094663611971218641905];
LW2_1 = [-0.048377428891552179402 0.36506998591461509163 0.29889457698037991129 -0.2020370655946498728 0.015438321460594327944 0.046809374594790099933 0.071276934458022009333 0.19386902963872215677 0.0079361100738926711878 -0.039345093008291052994 0.0010210115454077047306 0.044409108933236102201 0.20929734944154629317 -0.12399733828356043763 -0.019596971409730018499 0.0042331016142398789764 0.027911057210657758132 0.04749005757462698013 -0.96107803786030532311 -0.28318660209455109866;-0.29408763619677658063 0.97165416145812610882 -0.093281135071783066737 0.083487120843081963351 -0.0082033327773009812045 0.032516195365308711573 0.10143277061411729023 -0.096810594648576220322 0.075441668551172652579 -0.042025513238580863851 -0.49570931947520641137 0.046157483547660263512 0.61724928110379784219 -0.21188454062442790837 -0.058501950554889381451 -0.01128126148047873048 0.037685799330990962797 0.3561248603046233141 -0.57358706685106597423 0.2948292531004146344;-0.0042985426273720664381 -0.15036225831863572755 -0.37219516389389462052 -0.14134530712509771333 -0.013973613983690768778 0.031365427406298516944 0.92753031820464015844 0.093837316740786907987 0.012617141871839052461 0.16404658352149611988 -0.0037229387306721055742 0.032345994790428343746 -0.18793959291319978222 -0.020261787221063393138 -0.019178196438073696894 -0.029292228371140920096 0.01553810918738493356 0.069458004004882431537 -0.051048140736522425176 -0.50246059426965350436;-0.08321685930374139728 2.2134676081183841667 -3.6447587068409035282 -0.44628986427451278196 -0.049170907945497832614 0.03908359604739013865 0.77564729849410607443 0.28480504183790045225 0.051674192140577786259 4.2267539635722020108 0.022589666418536137604 0.065888634145478588988 0.36742831006393089632 -0.12788032211983887954 -0.026034159798503431205 -0.078882612057872905642 0.049202058184426786247 0.11815084306892326138 -0.15502700395032473213 0.55182624381718803352;-0.53236104579222431887 -0.021528175786622652521 0.048366476050445875168 -0.91787635388895294497 -0.26531911329627594354 -1.198044006559927821 -0.066049801285699288877 -0.10989656166579304941 -0.14246318205362101805 -0.10736330294273757624 -0.004897753000254821687 0.21609058850369289306 0.44502710939350670349 0.41206668696613890646 -1.5767666889933928953 -0.42427475122475866165 -0.10178588713615130401 1.7100462038899812978 -0.038265847980059865263 0.25983977300286137391;-1.7243255842223639274 0.020368386274163041705 -0.71337314876876722902 -1.0888846909153155895 -0.52680332963721665518 -0.37466732596928559174 -0.014998589251176638187 -0.31689902813093656642 -0.62354211813942372888 0.36924251193224183476 -0.0011193126957507737451 0.97404229847922230157 -0.46429387985727493815 0.38911970215873797896 -0.919681494395766852 0.26367799121673529683 -0.35422062699680623155 1.15538606493722118 0.32083657202405979625 1.2638526593564403111];

% Output 1
y1_step1.ymin = -1;
y1_step1.gain = [0.02;0.02;0.02;0.0200000311750822;0.02;0.02];
y1_step1.xoffset = [0;0;0;0.000155875168275088;0;0];

% ===== SIMULATION ========

% Dimensions
Q = size(x1,2); % samples

% Input 1
xp1 = mapminmax_apply(x1,x1_step1);

% Layer 1
a1 = tansig_apply(repmat(b1,1,Q) + IW1_1*xp1);

% Layer 2
a2 = repmat(b2,1,Q) + LW2_1*a1;

% Output 1
y1 = mapminmax_reverse(a2,y1_step1);
end

% ===== MODULE FUNCTIONS ========

% Map Minimum and Maximum Input Processing Function
function y = mapminmax_apply(x,settings)
y = bsxfun(@minus,x,settings.xoffset);
y = bsxfun(@times,y,settings.gain);
y = bsxfun(@plus,y,settings.ymin);
end

% Sigmoid Symmetric Transfer Function
function a = tansig_apply(n,~)
a = 2 ./ (1 + exp(-2*n)) - 1;
end

% Map Minimum and Maximum Output Reverse-Processing Function
function x = mapminmax_reverse(y,settings)
x = bsxfun(@minus,y,settings.ymin);
x = bsxfun(@rdivide,x,settings.gain);
x = bsxfun(@plus,x,settings.xoffset);
end
